svm_type one_class
kernel_type rbf
gamma 0.16666666666666666
nr_class 2
total_sv 22055
rho 21808.044330447912
SV
1 1:0.0169856 2:0.0237591 3:0.0259896 4:0.13764 5:0.0656061 6:0.118237 
1 1:0.0237591 2:0.0259896 3:0.0354241 4:0.107892 5:0.0764408 6:0.145555 
1 1:0.0521868 2:0.0875485 3:0.0748978 4:0.190008 5:0.0949496 6:0.137149 
1 1:0.0259896 2:0.0354241 3:0.0412189 4:0.118237 5:0.105054 6:0.256332 
1 1:0.0875485 2:0.0748978 3:0.0749914 4:0.135908 5:0.0962492 6:0.178225 
1 1:0.0748978 2:0.0749914 3:0.0450266 4:0.137149 5:0.139272 6:0.176734 
1 1:0.0221242 2:0.0405531 3:0.0227643 4:0.279488 5:0.257377 6:0.30083 
1 1:0.0405531 2:0.0227643 3:0.040475 4:0.290985 5:0.267689 6:0.28296 
1 1:0.0227643 2:0.040475 3:0.0215473 4:0.30083 5:0.248972 6:0.281976 
1 1:0.040475 2:0.0215473 3:0.0201111 4:0.28296 5:0.247942 
1 1:0.0201111 2:0.0479682 3:0.0411825 5:0.265328 6:0.348601 
1 1:0.0479682 2:0.0411825 3:0.0382591 4:0.298576 5:0.317725 
1 1:0.0382591 2:0.0347817 3:0.0735921 5:0.224689 6:0.190764 
1 1:0.0285994 2:0.060208 3:0.110603 4:0.242442 5:0.192269 
1 1:0.00280376 2:0.00353591 3:0.00784792 4:0.147331 5:0.113874 6:0.161956 
1 1:0.00353591 2:0.00784792 3:0.00460435 4:0.153975 5:0.122232 6:0.146612 
1 1:0.00784792 2:0.00460435 3:0.000902898 4:0.161956 5:0.106161 6:0.162617 
1 1:0.00522883 2:0.00250231 3:0.00353565 4:0.151105 5:0.120441 6:0.135937 
1 1:0.00250231 2:0.00353565 3:0.00433022 4:0.160245 5:0.0949804 6:0.137677 
1 1:0.00353565 2:0.00433022 3:0.00327556 4:0.135937 5:0.0968028 6:0.150407 
1 1:0.00433022 2:0.00327556 3:0.00325241 4:0.137677 5:0.110137 6:0.129785 
1 1:0.00327556 2:0.00325241 3:0.00665827 4:0.150407 5:0.0885365 6:0.155466 
1 1:0.00325241 2:0.00665827 3:0.00117719 4:0.129785 5:0.115435 6:0.14032 
1 1:0.00665827 2:0.00117719 3:0.000271117 4:0.155466 5:0.0995711 6:0.131371 
1 1:0.00117719 2:0.000271117 3:0.00665099 4:0.14032 5:0.0901975 6:0.128816 
1 1:0.000271117 2:0.00665099 3:0.00267813 4:0.131371 5:0.0875215 6:0.135533 
1 1:0.00665099 2:0.00267813 3:0.000189464 4:0.128816 5:0.0945575 6:0.141708 
1 1:0.00267813 2:0.000189464 3:0.00410498 4:0.135533 5:0.101024 6:0.163123 
1 1:0.0201166 2:0.0442047 3:0.0445168 4:0.162991 5:0.111044 6:0.129682 
1 1:0.0442047 2:0.0445168 3:0.0470865 4:0.151274 5:0.0884288 6:0.191924 
1 1:0.0324981 2:0.0263288 3:0.12659 4:0.276698 5:0.246881 6:0.178974 
1 1:0.0263288 2:0.12659 3:0.0768875 4:0.280963 5:0.140057 6:0.230358 
1 1:0.0296241 2:0.046712 3:0.0419757 4:0.252397 5:0.279931 6:0.367785 
1 1:0.046712 2:0.0419757 3:0.0485742 4:0.312517 5:0.337818 6:0.346157 
1 1:0.0419757 2:0.0485742 3:0.0519866 4:0.367785 5:0.315164 6:0.351597 
1 1:0.0485742 2:0.0519866 3:0.0785416 4:0.346157 5:0.320862 6:0.257624 
1 1:0.0519866 2:0.0785416 3:0.0537448 4:0.351597 5:0.222435 6:0.315755 
1 1:0.0785416 2:0.0537448 3:0.0233846 4:0.257624 5:0.283322 6:0.354724 
1 1:0.0537448 2:0.0233846 3:0.0027377 4:0.315755 5:0.324138 6:0.33234 
1 1:0.0233846 2:0.0027377 3:0.0152433 4:0.354724 5:0.300693 6:0.364437 
1 1:0.0027377 2:0.0152433 3:0.0413931 4:0.33234 5:0.334311 6:0.367455 
1 1:0.0152433 2:0.0413931 3:0.0340846 4:0.364437 5:0.337472 6:0.330394 
1 1:0.0413931 2:0.0340846 3:0.0187787 4:0.367455 5:0.298655 6:0.322194 
1 1:0.0295253 2:0.046301 3:0.0479214 5:0.229049 6:0.27788 
1 1:0.0340846 2:0.0187787 3:0.0212024 4:0.330394 5:0.290066 6:0.322296 
1 1:0.0187787 2:0.0212024 3:0.0397104 4:0.322194 5:0.290173 6:0.26653 
1 1:0.0479214 2:0.0477393 3:0.0461944 4:0.27788 5:0.228364 6:0.322348 
1 1:0.0212024 2:0.0397104 3:0.027031 4:0.322296 5:0.231763 6:0.273416 
1 1:0.0477393 2:0.0461944 3:0.0379001 4:0.263285 5:0.290227 6:0.32331 
1 1:0.0397104 2:0.027031 3:0.0113802 4:0.26653 5:0.238976 6:0.327149 
1 1:0.0461944 2:0.0379001 3:0.0312367 4:0.322348 5:0.291234 6:0.262778 
1 1:0.027031 2:0.0113802 3:0.0287866 4:0.273416 5:0.295256 6:0.282688 
1 1:0.0379001 2:0.0312367 3:0.0284771 4:0.32331 5:0.227834 6:0.290595 
1 1:0.0113802 2:0.0287866 3:0.0478694 4:0.327149 5:0.248688 6:0.418273 
1 1:0.0287866 2:0.0478694 3:0.0388365 4:0.282688 5:0.390699 6:0.365773 
1 1:0.0478694 2:0.0388365 3:0.10267 4:0.418273 5:0.335711 6:0.205455 
1 1:0.0388365 2:0.10267 3:0.109833 4:0.365773 5:0.167793 6:0.170413 
1 1:0.10267 2:0.109833 3:0.0470553 4:0.205455 5:0.131091 6:0.24902 
1 1:0.018226 2:0.0128973 3:0.0231596 4:0.256846 5:0.242375 6:0.347823 
1 1:0.0128973 2:0.0231596 3:0.0360431 4:0.276661 5:0.31691 6:0.300139 
1 1:0.0231596 2:0.0360431 3:0.0515184 4:0.347823 5:0.266966 6:0.350452 
1 1:0.0360431 2:0.0515184 3:0.0426104 4:0.300139 5:0.319663 6:0.423699 
1 1:0.0278425 2:0.0779798 3:0.0862637 4:0.302702 5:0.241959 6:0.196909 
1 1:0.0515184 2:0.0426104 3:0.0410316 4:0.350452 5:0.396382 6:0.404611 
1 1:0.0426104 2:0.0410316 3:0.044405 4:0.423699 5:0.376389 6:0.38202 
1 1:0.0410316 2:0.044405 3:0.0512115 4:0.404611 5:0.352728 6:0.367491 
1 1:0.044405 2:0.0512115 3:0.0510893 4:0.38202 5:0.33751 6:0.402261 
1 1:0.0512115 2:0.0510893 3:0.0599375 4:0.367491 5:0.373928 6:0.253418 
1 1:0.0728925 2:0.0373332 3:0.0352316 4:0.269422 5:0.269104 6:0.278386 
1 1:0.0510893 2:0.0599375 3:0.0662524 4:0.402261 5:0.218029 6:0.203583 
1 1:0.0362018 2:0.043799 3:0.0304278 4:0.157793 5:0.114681 6:0.141098 
1 1:0.043799 2:0.0304278 3:0.0361888 4:0.154746 5:0.100386 6:0.145951 
1 1:0.0304278 2:0.0361888 3:0.0371953 4:0.141098 5:0.105469 6:0.158615 
1 1:0.0233375 2:0.0168803 3:0.0131935 4:0.148102 5:0.105615 6:0.13245 
1 1:0.0168803 2:0.0131935 3:0.0135119 4:0.146091 5:0.0913278 6:0.111945 
1 1:0.0131935 2:0.0135119 3:0.00871116 4:0.13245 5:0.0698508 6:0.119264 
1 1:0.0136274 2:0.0237875 3:0.0684658 4:0.280567 5:0.235815 6:0.133368 
1 1:0.0135119 2:0.00871116 3:0.00944981 4:0.111945 5:0.0775173 6:0.130893 
1 1:0.0237875 2:0.0684658 3:0.0817277 4:0.270399 5:0.092289 6:0.0957125 
1 1:0.00871116 2:0.00944981 3:0.0135064 4:0.119264 5:0.0896976 6:0.157778 
1 1:0.0684658 2:0.0817277 3:0.0450084 4:0.133368 5:0.0528491 6:0.127759 
1 1:0.00944981 2:0.0135064 3:0.00786717 4:0.130893 5:0.117857 6:0.127436 
1 1:0.0817277 2:0.0450084 3:0.0647829 4:0.0957125 5:0.0864142 6:0.265157 
1 1:0.0135064 2:0.00786717 3:0.00979781 4:0.157778 5:0.0860758 6:0.0938331 
1 1:0.0450084 2:0.0647829 3:0.0571649 4:0.127759 5:0.230325 6:0.269899 
1 1:0.00786717 2:0.00979781 3:0.0128385 4:0.127436 5:0.0508805 6:0.106358 
1 1:0.00979781 2:0.0128385 3:0.0134971 4:0.0938331 5:0.063999 6:0.0972469 
1 1:0.0571649 2:0.0528449 3:0.042059 4:0.269899 5:0.269757 6:0.283804 
1 1:0.0128385 2:0.0134971 3:0.00831998 4:0.106358 5:0.0544562 6:0.0957712 
1 1:0.0528449 2:0.042059 3:0.0346048 4:0.302804 5:0.249857 6:0.27893 
1 1:0.0134971 2:0.00831998 3:0.0135067 4:0.0972469 5:0.0529106 6:0.0895015 
1 1:0.042059 2:0.0346048 3:0.0598542 4:0.283804 5:0.244751 6:0.312283 
1 1:0.00831998 2:0.0135067 3:0.00291273 4:0.0957712 5:0.0463437 6:0.0891271 
1 1:0.0346048 2:0.0598542 3:0.0674905 4:0.27893 5:0.279685 6:0.311952 
1 1:0.0135067 2:0.00291273 3:0.0141031 4:0.0895015 5:0.0459515 6:0.0974231 
1 1:0.0598542 2:0.0674905 3:0.0377441 4:0.312283 5:0.279339 6:0.304376 
1 1:0.00291273 2:0.0141031 3:0.00808278 4:0.0891271 5:0.0546407 6:0.0889729 
1 1:0.0674905 2:0.0377441 3:0.0315046 4:0.311952 5:0.271403 6:0.296961 
1 1:0.0141031 2:0.00808278 3:0.0101747 4:0.0974231 5:0.04579 6:0.0844211 
1 1:0.0377441 2:0.0315046 3:0.0353747 4:0.304376 5:0.263636 6:0.296792 
1 1:0.00808278 2:0.0101747 3:0.00355593 4:0.0889729 5:0.0410225 6:0.0906101 
1 1:0.0315046 2:0.0353747 3:0.0191956 4:0.296961 5:0.263459 6:0.274172 
1 1:0.0101747 2:0.00355593 3:0.0027005 4:0.0844211 5:0.0475048 6:0.0977168 
1 1:0.00355593 2:0.0027005 3:0.00122325 4:0.0906101 5:0.0549483 6:0.0909772 
1 1:0.0027005 2:0.00122325 3:0.00471437 4:0.0977168 5:0.0478893 6:0.0867925 
1 1:0.0266305 2:0.0430005 3:0.0653369 4:0.278386 5:0.25414 6:0.315256 
1 1:0.00122325 2:0.00471437 3:0.00563352 4:0.0909772 5:0.0435062 6:0.0846047 
1 1:0.0430005 2:0.0653369 3:0.0464935 4:0.287894 5:0.282799 6:0.306468 
1 1:0.00471437 2:0.00563352 3:0.00409588 4:0.0867925 5:0.0412147 6:0.0901182 
1 1:0.0653369 2:0.0464935 3:0.0398196 4:0.315256 5:0.273594 6:0.236246 
1 1:0.00563352 2:0.00409588 3:0.00198424 4:0.0846047 5:0.0469896 6:0.0857132 
1 1:0.00409588 2:0.00198424 3:0.00300377 4:0.0901182 5:0.0423758 6:0.106182 
1 1:0.00198424 2:0.00300377 3:0.00220381 4:0.0857132 5:0.0638144 6:0.0901182 
1 1:0.00300377 2:0.00220381 3:0.00333018 4:0.106182 5:0.0469896 6:0.095896 
1 1:0.00220381 2:0.00333018 3:0.00483167 4:0.0901182 5:0.0530413 6:0.0938991 
1 1:0.00333018 2:0.00483167 3:0.00362278 4:0.095896 5:0.0509497 6:0.0991998 
1 1:0.00483167 2:0.00362278 3:0.00241157 4:0.0938991 5:0.0565016 6:0.0897878 
1 1:0.00362278 2:0.00241157 3:0.00550894 4:0.0991998 5:0.0466436 6:0.101703 
1 1:0.00241157 2:0.00550894 3:0.00207548 4:0.0897878 5:0.0591238 6:0.0972469 
1 1:0.00550894 2:0.00207548 3:0.00658389 4:0.101703 5:0.0544562 6:0.0968945 
1 1:0.00207548 2:0.00658389 3:0.00394555 4:0.0972469 5:0.0540871 6:0.127568 
1 1:0.00658389 2:0.00394555 3:0.00344488 4:0.0968945 5:0.0862142 6:0.140687 
1 1:0.00394555 2:0.00344488 3:0.00112007 4:0.127568 5:0.0999556 6:0.108318 
1 1:0.0400563 2:0.069116 3:0.0702058 4:0.259592 5:0.239083 6:0.321122 
1 1:0.00344488 2:0.00112007 3:0.00523221 4:0.140687 5:0.0660521 6:0.130629 
1 1:0.069116 2:0.0702058 3:0.0341731 4:0.273519 5:0.288943 6:0.320021 
1 1:0.00112007 2:0.00523221 3:0.00403008 4:0.108318 5:0.0894208 6:0.149013 
1 1:0.0702058 2:0.0341731 3:0.0320794 4:0.321122 5:0.287789 6:0.357411 
1 1:0.00523221 2:0.00403008 3:0.00527616 4:0.130629 5:0.108676 6:0.150231 
1 1:0.0341731 2:0.0320794 3:0.0596124 4:0.320021 5:0.326953 6:0.258505 
1 1:0.00403008 2:0.00527616 3:0.0039856 4:0.149013 5:0.109952 6:0.12096 
1 1:0.0320794 2:0.0596124 3:0.111823 4:0.357411 5:0.223358 6:0.206057 
1 1:0.00527616 2:0.0039856 3:0.000949714 4:0.150231 5:0.0792936 6:0.160363 
1 1:0.0596124 2:0.111823 3:0.0894628 4:0.258505 5:0.168424 6:0.172506 
1 1:0.0039856 2:0.000949714 3:0.00121407 4:0.12096 5:0.120564 6:0.163197 
1 1:0.111823 2:0.0894628 3:0.126838 4:0.206057 5:0.133282 6:0.153498 
1 1:0.000949714 2:0.00121407 3:0.00309246 4:0.160363 5:0.123532 6:0.131114 
1 1:0.0894628 2:0.126838 3:0.0386102 4:0.172506 5:0.113374 6:0.195757 
1 1:0.00121407 2:0.00309246 3:0.00553677 4:0.163197 5:0.0899283 6:0.12734 
1 1:0.126838 2:0.0386102 3:0.0790956 4:0.153498 5:0.157635 6:0.197849 
1 1:0.00309246 2:0.00553677 3:0.00856421 4:0.131114 5:0.0859759 6:0.116974 
1 1:0.0386102 2:0.0790956 3:0.143195 4:0.195757 5:0.159827 6:0.170303 
1 1:0.00553677 2:0.00856421 3:0.0193124 4:0.12734 5:0.0751182 6:0.14797 
1 1:0.0790956 2:0.143195 3:0.0627308 4:0.197849 5:0.130975 6:0.273724 
1 1:0.00856421 2:0.0193124 3:0.0251391 4:0.116974 5:0.107584 6:0.206013 
1 1:0.143195 2:0.0627308 3:0.021482 4:0.170303 5:0.239299 6:0.30732 
1 1:0.0627308 2:0.021482 3:0.041003 4:0.273724 5:0.274486 6:0.312503 
1 1:0.0251391 2:0.0308127 3:0.0171287 4:0.206013 5:0.164164 
1 1:0.021482 2:0.041003 3:0.0571233 4:0.30732 5:0.279915 6:0.167139 
1 1:0.041003 2:0.0571233 3:0.0887579 4:0.312503 5:0.127661 6:0.203781 
1 1:0.0887579 2:0.0679664 3:0.0178715 4:0.203781 5:0.231371 6:0.329095 
1 1:0.0679664 2:0.0178715 3:0.0276709 4:0.266155 5:0.297294 6:0.333845 
1 1:0.0178715 2:0.0276709 3:0.0790982 4:0.329095 5:0.302269 6:0.214529 
1 1:0.0325553 2:0.0650638 3:0.0673552 5:0.214038 6:0.180714 
1 1:0.0276709 2:0.0790982 3:0.0656464 4:0.333845 5:0.177298 6:0.259819 
1 1:0.0909557 2:0.0674983 3:0.106662 4:0.225094 5:0.122609 6:0.20809 
1 1:0.0674983 2:0.106662 3:0.123938 4:0.162316 5:0.170554 6:0.225997 
1 1:0.106662 2:0.123938 3:0.194903 4:0.20809 5:0.189309 6:0.200587 
1 1:0.123938 2:0.194903 3:0.0613289 4:0.225997 5:0.162695 6:0.287189 
1 1:0.194903 2:0.0613289 3:0.0716337 4:0.200587 5:0.253401 6:0.285559 
1 1:0.0613289 2:0.0716337 3:0.0455129 4:0.287189 5:0.251694 6:0.311137 
1 1:0.0716337 2:0.0455129 3:0.0852675 4:0.285559 5:0.278485 6:0.267792 
1 1:0.0455129 2:0.0852675 3:0.0233763 4:0.311137 5:0.233086 6:0.158938 
1 1:0.0852675 2:0.0233763 3:0.0435233 4:0.267792 5:0.119072 6:0.344057 
1 1:0.0233763 2:0.0435233 3:0.0238083 4:0.158938 5:0.312965 6:0.326444 
1 1:0.0435233 2:0.0238083 3:0.0327946 4:0.344057 5:0.294518 6:0.221129 
1 1:0.0238083 2:0.0327946 3:0.0436611 4:0.326444 5:0.18421 6:0.350356 
1 1:0.0327946 2:0.0436611 3:0.0512817 4:0.221129 5:0.319563 6:0.267991 
1 1:0.0436611 2:0.0512817 3:0.0384593 4:0.350356 5:0.233293 6:0.233955 
1 1:0.0384593 2:0.0711577 3:0.0510528 4:0.233955 5:0.24522 6:0.315762 
1 1:0.0711577 2:0.0510528 3:0.0125085 4:0.279377 5:0.283329 6:0.330967 
1 1:0.0510528 2:0.0125085 3:0.0342823 4:0.315762 5:0.299255 6:0.292122 
1 1:0.0125085 2:0.0342823 3:0.0683956 4:0.330967 5:0.258569 6:0.275237 
1 1:0.00835613 2:0.00851557 3:0.00733086 4:0.167521 5:0.103708 6:0.147742 
1 1:0.00851557 2:0.00733086 3:0.00660626 4:0.14427 5:0.107345 6:0.169349 
1 1:0.00733086 2:0.00660626 3:0.00117258 4:0.147742 5:0.129976 6:0.144916 
1 1:0.00660626 2:0.00117258 3:0.0119818 4:0.169349 5:0.104385 6:0.149336 
1 1:0.00117258 2:0.0119818 3:0.00796418 4:0.144916 5:0.109014 6:0.169158 
1 1:0.0534092 2:0.0594979 3:0.0470917 4:0.247038 5:0.273371 6:0.299046 
1 1:0.0594979 2:0.0470917 3:0.0302119 4:0.306255 5:0.26582 6:0.310051 
1 1:0.0470917 2:0.0302119 3:0.0127007 4:0.299046 5:0.277347 6:0.330313 
1 1:0.0302119 2:0.0127007 3:0.010512 4:0.310051 5:0.29857 6:0.309977 
1 1:0.0127007 2:0.010512 3:0.0156834 4:0.330313 5:0.27727 6:0.357154 
1 1:0.010512 2:0.0156834 3:0.0179984 4:0.309977 5:0.326683 6:0.306791 
1 1:0.0156834 2:0.0179984 3:0.0614434 4:0.357154 5:0.273933 6:0.239285 
1 1:0.0179984 2:0.0614434 3:0.106662 4:0.306791 5:0.203227 6:0.228383 
1 1:0.018981 2:0.0428184 3:0.0551362 4:0.257235 5:0.20212 6:0.335783 
1 1:0.0428184 2:0.0551362 3:0.0835483 4:0.238228 5:0.304299 6:0.437486 
1 1:0.0551362 2:0.0835483 3:0.0746299 4:0.335783 5:0.410823 6:0.372564 
1 1:0.0835483 2:0.0746299 3:0.0370809 4:0.437486 5:0.342824 6:0.329205 
1 1:0.0746299 2:0.0370809 3:0.043942 4:0.372564 5:0.297409 6:0.271037 
1 1:0.0370809 2:0.043942 3:0.0546993 4:0.329205 5:0.236484 6:0.287578 
1 1:0.043942 2:0.0546993 3:0.0407039 4:0.271037 5:0.253809 6:0.301711 
1 1:0.0546993 2:0.0407039 3:0.0176684 4:0.287578 5:0.268612 6:0.304757 
1 1:0.0407039 2:0.0176684 3:0.0686296 4:0.301711 5:0.271803 6:0.246414 
1 1:0.0176684 2:0.0686296 3:0.107643 4:0.304757 5:0.210693 6:0.215887 
1 1:0.0192741 2:0.0376166 3:0.0180296 4:0.273739 5:0.253371 6:0.312738 
1 1:0.0302665 2:0.0270596 3:0.0799825 4:0.267425 5:0.287774 6:0.380581 
1 1:0.0376166 2:0.0180296 3:0.0176382 4:0.28716 5:0.280161 6:0.267624 
1 1:0.0270596 2:0.0799825 3:0.0520256 4:0.320006 5:0.351221 6:0.370788 
1 1:0.0799825 2:0.0520256 3:0.0519605 4:0.380581 5:0.340963 6:0.330769 
1 1:0.0520256 2:0.0519605 3:0.120041 4:0.370788 5:0.299047 6:0.41994 
1 1:0.0519605 2:0.120041 3:0.154966 4:0.330769 5:0.392445 6:0.248528 
1 1:0.0238725 2:0.0253092 3:0.0227234 4:0.30475 5:0.235885 6:0.325622 
1 1:0.120041 2:0.154966 3:0.0714568 4:0.41994 5:0.212908 6:0.113163 
1 1:0.0253092 2:0.0227234 3:0.0233799 4:0.270465 5:0.293657 6:0.256868 
1 1:0.154966 2:0.0714568 3:0.0330183 4:0.248528 5:0.0711272 6:0.165942 
1 1:0.0227234 2:0.0233799 3:0.0147307 4:0.325622 5:0.221643 6:0.319492 
1 1:0.0714568 2:0.0330183 3:0.0402826 4:0.113163 5:0.126408 6:0.270435 
1 1:0.0233799 2:0.0147307 3:0.00850204 4:0.256868 5:0.287236 6:0.299104 
1 1:0.0330183 2:0.0402826 3:0.0807758 4:0.165942 5:0.235854 6:0.425343 
1 1:0.0147307 2:0.00850204 3:0.020701 4:0.319492 5:0.265882 6:0.330277 
1 1:0.0402826 2:0.0807758 3:0.110416 4:0.270435 5:0.398104 6:0.314727 
1 1:0.00850204 2:0.020701 3:0.0182523 4:0.299104 5:0.298532 6:0.266397 
1 1:0.0807758 2:0.110416 3:0.0567384 4:0.425343 5:0.282245 6:0.338264 
1 1:0.020701 2:0.0182523 3:0.0286696 4:0.330277 5:0.231625 6:0.310733 
1 1:0.110416 2:0.0567384 3:0.058031 4:0.314727 5:0.306898 6:0.31798 
1 1:0.0182523 2:0.0286696 3:0.0579166 4:0.266397 5:0.278062 6:0.164305 
1 1:0.0567384 2:0.058031 3:0.0697844 4:0.338264 5:0.285652 6:0.318464 
1 1:0.058031 2:0.0697844 3:0.0714438 4:0.31798 5:0.286159 6:0.277226 
1 1:0.0697844 2:0.0714438 3:0.0592352 4:0.318464 5:0.242967 6:0.236033 
1 1:0.0787315 2:0.057256 3:0.0270805 4:0.163674 5:0.145078 6:0.116702 
1 1:0.057256 2:0.0270805 3:0.032238 4:0.183768 5:0.0748336 6:0.157845 
1 1:0.0270805 2:0.032238 3:0.0420538 4:0.116702 5:0.117926 6:0.25609 
1 1:0.0382669 2:0.0305656 3:0.0318609 4:0.300962 5:0.214607 6:0.327722 
1 1:0.0305656 2:0.0318609 3:0.0255202 4:0.250151 5:0.295856 6:0.303531 
1 1:0.0318609 2:0.0255202 3:0.03622 4:0.327722 5:0.270519 6:0.28492 
1 1:0.020765 2:0.0242504 3:0.0302249 4:0.163211 5:0.118503 6:0.135284 
1 1:0.0201382 2:0.0242223 3:0.0177373 4:0.173225 5:0.0844918 
1 1:0.0241193 2:0.0437001 3:0.0800918 5:0.20385 6:0.152911 
1 1:0.0437001 2:0.0800918 3:0.0662914 4:0.23988 5:0.112759 6:0.126099 
1 1:0.0800918 2:0.0662914 3:0.0789526 4:0.152911 5:0.0846763 
1 1:0.0789526 2:0.028771 3:0.0205005 5:0.218821 6:0.241722 
1 1:0.036311 2:0.053841 3:0.0569751 4:0.163006 5:0.118849 6:0.135232 
1 1:0.053841 2:0.0569751 3:0.0377233 4:0.158725 5:0.0942422 6:0.261559 
1 1:0.0251748 2:0.0478199 3:0.0554093 4:0.253638 5:0.0983792 6:0.146135 
1 1:0.0802816 2:0.0771215 3:0.0722137 4:0.238778 5:0.174014 6:0.354276 
1 1:0.0771215 2:0.0722137 3:0.0523507 4:0.211394 5:0.323669 6:0.366478 
1 1:0.0722137 2:0.0523507 3:0.0631262 4:0.354276 5:0.336449 6:0.330725 
1 1:0.0523507 2:0.0631262 3:0.0613316 4:0.366478 5:0.299001 6:0.385787 
1 1:0.0631262 2:0.0613316 3:0.0528865 4:0.330725 5:0.356673 6:0.306145 
1 1:0.0613316 2:0.0528865 3:0.0422592 4:0.385787 5:0.273256 6:0.169077 
1 1:0.0528865 2:0.0422592 3:0.0465819 4:0.306145 5:0.129691 6:0.152368 
1 1:0.0372369 2:0.0231968 3:0.0277931 4:0.182777 5:0.101832 6:0.138353 
1 1:0.0231968 2:0.0277931 3:0.0227416 4:0.142479 5:0.0975103 6:0.13742 
1 1:0.0277931 2:0.0227416 3:0.0290571 4:0.138353 5:0.0965337 6:0.145158 
1 1:0.0227416 2:0.0290571 3:0.0725778 4:0.13742 5:0.104639 6:0.130747 
1 1:0.0290571 2:0.0725778 3:0.0573314 4:0.145158 5:0.0895438 6:0.279018 
1 1:0.0580908 2:0.0509514 3:0.0706609 4:0.17727 5:0.252994 6:0.29837 
1 1:0.0509514 2:0.0706609 3:0.0633394 4:0.2868 5:0.265113 6:0.329557 
1 1:0.0706609 2:0.0633394 3:0.0348103 4:0.29837 5:0.297778 6:0.30392 
1 1:0.0633394 2:0.0348103 3:0.0119181 4:0.329557 5:0.270926 6:0.212319 
1 1:0.0480982 2:0.0420824 3:0.0286826 4:0.156413 5:0.159642 6:0.120153 
1 1:0.0235516 2:0.0244317 3:0.0205059 4:0.157521 5:0.0925274 6:0.158234 
1 1:0.0244317 2:0.0205059 3:0.0201478 4:0.133595 5:0.118334 6:0.163439 
1 1:0.0418171 2:0.0194133 3:0.055685 4:0.240562 5:0.260968 6:0.34753 
1 1:0.0194133 2:0.055685 3:0.0769707 4:0.294413 5:0.316602 6:0.31447 
1 1:0.055685 2:0.0769707 3:0.0714282 4:0.34753 5:0.281976 6:0.329689 
1 1:0.0769707 2:0.0714282 3:0.0777041 4:0.31447 5:0.297917 6:0.324286 
1 1:0.0714282 2:0.0777041 3:0.0776261 4:0.329689 5:0.292257 6:0.27545 
1 1:0.0777041 2:0.0776261 3:0.0635605 4:0.324286 5:0.241106 6:0.318728 
1 1:0.0776261 2:0.0635605 3:0.0560674 4:0.27545 5:0.286436 6:0.36407 
1 1:0.0635605 2:0.0560674 3:0.0538982 4:0.318728 5:0.333927 6:0.341267 
1 1:0.0560674 2:0.0538982 3:0.0657895 4:0.36407 5:0.310043 6:0.252661 
1 1:0.0538982 2:0.0657895 3:0.0364176 4:0.341267 5:0.217237 6:0.371522 
1 1:0.0112587 2:0.0129821 3:0.020411 4:0.25051 5:0.186717 6:0.337222 
1 1:0.0657895 2:0.0364176 3:0.0410004 4:0.252661 5:0.341732 6:0.361288 
1 1:0.0129821 2:0.020411 3:0.0115698 4:0.223523 5:0.305806 6:0.306901 
1 1:0.0364176 2:0.0410004 3:0.0436065 4:0.371522 5:0.331013 6:0.412466 
1 1:0.020411 2:0.0115698 3:0.000218607 4:0.337222 5:0.274048 6:0.252889 
1 1:0.0410004 2:0.0436065 3:0.0230345 4:0.361288 5:0.384617 6:0.351832 
1 1:0.0436065 2:0.0230345 3:0.041622 4:0.412466 5:0.321108 6:0.358373 
1 1:0.0230345 2:0.041622 3:0.0630247 4:0.351832 5:0.32796 6:0.345944 
1 1:0.041622 2:0.0630247 3:0.0153073 4:0.358373 5:0.314941 6:0.334124 
1 1:0.0630247 2:0.0153073 3:0.0282769 4:0.345944 5:0.302561 6:0.322597 
1 1:0.0153073 2:0.0282769 3:0.016525 4:0.334124 5:0.290488 6:0.320388 
1 1:0.0282769 2:0.016525 3:0.0120676 4:0.322597 5:0.288174 6:0.331231 
1 1:0.016525 2:0.0120676 3:0.0134208 4:0.320388 5:0.299531 6:0.285456 
1 1:0.0120676 2:0.0134208 3:0.0117786 4:0.331231 5:0.251587 6:0.330908 
1 1:0.0134208 2:0.0117786 3:0.0332576 4:0.285456 5:0.299193 6:0.335702 
1 1:0.0117786 2:0.0332576 3:0.0773452 4:0.330908 5:0.304214 6:0.44355 
1 1:0.0332576 2:0.0773452 3:0.0379652 4:0.335702 5:0.417175 6:0.445804 
1 1:0.0773452 2:0.0379652 3:0.0252323 4:0.44355 5:0.419535 6:0.444196 
1 1:0.0379652 2:0.0252323 3:0.05446 4:0.445804 5:0.417851 6:0.356685 
1 1:0.0252323 2:0.05446 3:0.0437313 4:0.444196 5:0.326191 6:0.359137 
1 1:0.05446 2:0.0437313 3:0.0209421 4:0.356685 5:0.32876 6:0.297137 
1 1:0.0437313 2:0.0209421 3:0.0289219 4:0.359137 5:0.263821 6:0.29688 
1 1:0.0209421 2:0.0289219 3:0.0315228 4:0.297137 5:0.263552 6:0.275486 
1 1:0.0289219 2:0.0315228 3:0.0218964 4:0.29688 5:0.241144 6:0.303575 
1 1:0.0218964 2:0.0179724 3:0.0118192 4:0.303575 5:0.23923 6:0.287123 
1 1:0.00629701 2:0.014309 3:0.0193363 4:0.282182 5:0.270557 6:0.343873 
1 1:0.014309 2:0.0193363 3:0.067813 4:0.303568 5:0.312773 6:0.338632 
1 1:0.0193363 2:0.067813 3:0.0446416 4:0.343873 5:0.307283 6:0.239256 
1 1:0.067813 2:0.0446416 3:0.0533988 4:0.338632 5:0.203196 6:0.334895 
1 1:0.0446416 2:0.0533988 3:0.0837408 4:0.239256 5:0.303369 6:0.358424 
1 1:0.0138895 2:0.00150456 3:0.0106506 4:0.152559 5:0.126938 6:0.144299 
1 1:0.0533988 2:0.0837408 3:0.0412527 4:0.334895 5:0.328014 6:0.373563 
1 1:0.00150456 2:0.0106506 3:0.0153811 4:0.166449 5:0.103739 6:0.132655 
1 1:0.0837408 2:0.0412527 3:0.0331249 4:0.358424 5:0.34387 6:0.373196 
1 1:0.0106506 2:0.0153811 3:0.00892885 4:0.144299 5:0.0915431 6:0.114705 
1 1:0.0412527 2:0.0331249 3:0.0946619 4:0.373563 5:0.343485 6:0.362242 
1 1:0.0153811 2:0.00892885 3:0.0172332 4:0.132655 5:0.0727421 6:0.180486 
1 1:0.0331249 2:0.0946619 3:0.0367375 4:0.373196 5:0.332012 6:0.234461 
1 1:0.00892885 2:0.0172332 3:0.0200874 4:0.114705 5:0.141641 6:0.149145 
1 1:0.0946619 2:0.0367375 3:0.044522 4:0.362242 5:0.198175 6:0.352977 
1 1:0.0367375 2:0.044522 3:0.0334968 4:0.234461 5:0.322308 6:0.327663 
1 1:0.044522 2:0.0334968 3:0.0248497 4:0.352977 5:0.295794 6:0.354981 
1 1:0.0102925 2:0.0113391 3:0.0130546 4:0.160326 5:0.123055 6:0.138632 
1 1:0.0334968 2:0.0248497 3:0.00985581 4:0.327663 5:0.324407 6:0.332633 
1 1:0.0113391 2:0.0130546 3:0.00743256 4:0.162741 5:0.0978025 6:0.150525 
1 1:0.0248497 2:0.00985581 3:0.0302951 4:0.354981 5:0.301 6:0.354607 
1 1:0.0130546 2:0.00743256 3:0.00433178 4:0.138632 5:0.11026 6:0.136737 
1 1:0.00985581 2:0.0302951 3:0.0315774 4:0.332633 5:0.324015 6:0.360245 
1 1:0.00743256 2:0.00433178 3:0.0066822 4:0.150525 5:0.0958186 6:0.162521 
1 1:0.0302951 2:0.0315774 3:0.0325553 4:0.354607 5:0.329921 6:0.31809 
1 1:0.00433178 2:0.0066822 3:0.00497862 4:0.136737 5:0.122824 6:0.149196 
1 1:0.0315774 2:0.0325553 3:0.0246231 4:0.360245 5:0.285767 6:0.304053 
1 1:0.0066822 2:0.00497862 3:0.00685334 4:0.162521 5:0.108868 6:0.149005 
1 1:0.0325553 2:0.0246231 3:0.0108803 4:0.31809 5:0.271065 6:0.303561 
1 1:0.00497862 2:0.00685334 3:0.00196401 4:0.149196 5:0.108668 6:0.137215 
1 1:0.0246231 2:0.0108803 3:0.0206326 4:0.304053 5:0.270549 6:0.279333 
1 1:0.00685334 2:0.00196401 3:0.00585382 4:0.149005 5:0.0963184 6:0.144248 
1 1:0.00196401 2:0.00585382 3:0.00739016 4:0.137215 5:0.103685 6:0.1641 
1 1:0.00739016 2:0.0147218 3:0.0540127 4:0.1641 5:0.132244 6:0.114727 
1 1:0.0147218 2:0.0540127 3:0.0542623 4:0.171515 5:0.0727651 6:0.204978 
1 1:0.0286488 2:0.0286904 3:0.0314317 4:0.165979 5:0.10004 6:0.122649 
1 1:0.0286904 2:0.0314317 3:0.0411331 4:0.140768 5:0.0810622 6:0.114037 
1 1:0.0314317 2:0.0411331 3:0.0346594 4:0.122649 5:0.0720423 6:0.253726 
1 1:0.04505 2:0.0302561 3:0.0182679 4:0.29456 5:0.259053 6:0.300507 
1 1:0.0302561 2:0.0182679 3:0.0411513 4:0.292585 5:0.26735 6:0.269092 
1 1:0.0182679 2:0.0411513 3:0.109404 4:0.300507 5:0.234447 6:0.145988 
1 1:0.0411513 2:0.109404 3:0.0477419 4:0.269092 5:0.105507 6:0.222289 
1 1:0.0498122 2:0.0937802 3:0.0287658 4:0.211071 5:0.0944267 6:0.128397 
1 1:0.0937802 2:0.0287658 3:0.0462698 4:0.135409 5:0.0870832 6:0.199427 
1 1:0.0319831 2:0.0566604 3:0.0564263 4:0.270575 5:0.275348 6:0.316482 
1 1:0.0566604 2:0.0564263 3:0.0528787 4:0.308142 5:0.284083 6:0.275971 
1 1:0.0564263 2:0.0528787 3:0.0396063 4:0.316482 5:0.241652 6:0.270259 
1 1:0.0944825 2:0.0716519 3:0.0222574 4:0.182321 5:0.262475 6:0.264158 
1 1:0.0423477 2:0.0444024 3:0.0583509 4:0.242016 5:0.260291 6:0.324242 
1 1:0.0444024 2:0.0583509 3:0.0508422 4:0.293767 5:0.292211 6:0.372865 
1 2:0.00281468 4:0.141671 5:0.0955956 6:0.14601 
1 2:0.00355255 4:0.140122 5:0.102001 6:0.14264 
1 1:0.00281468 3:0.00366803 4:0.136524 5:0.105531 6:0.130123 
1 1:0.00355255 3:0.00279335 4:0.14264 5:0.102001 6:0.1562 
1 2:0.00366803 4:0.14601 5:0.0888902 6:0.135262 
1 2:0.00279335 4:0.14264 5:0.116204 6:0.156193 
1 1:0.00366803 4:0.130123 5:0.0942729 6:0.134594 
1 1:0.00279335 4:0.1562 5:0.116196 6:0.156193 
1 3:0.00454713 4:0.135262 5:0.0935732 6:0.126298 
1 3:0.00443451 4:0.156193 5:0.116196 6:0.140048 
1 2:0.00454713 4:0.134594 5:0.0848839 6:0.133837 
1 2:0.00443451 4:0.156193 5:0.0992866 6:0.140048 
1 1:0.00454713 3:0.00450032 4:0.126298 5:0.0927812 6:0.130637 
1 1:0.00443451 3:0.0052114 4:0.140048 5:0.0992866 6:0.143506 
1 2:0.00450032 4:0.133837 5:0.0894285 6:0.134102 
1 2:0.0052114 4:0.140048 5:0.102908 6:0.154027 
1 1:0.00450032 4:0.130637 5:0.093058 6:0.142009 
1 1:0.0052114 4:0.143506 5:0.113928 6:0.144703 
1 3:0.00556512 4:0.134102 5:0.10134 6:0.137516 
1 3:0.00236215 4:0.154027 5:0.104162 6:0.140951 
1 2:0.00556512 4:0.142009 5:0.0966336 6:0.125461 
1 2:0.00236215 4:0.144703 5:0.100232 6:0.153917 
1 1:0.00556512 3:0.00699769 4:0.137516 5:0.0840073 6:0.134197 
1 1:0.00236215 3:0.00272807 4:0.140951 5:0.113812 6:0.142772 
1 2:0.00699769 4:0.125461 5:0.0931579 6:0.145665 
1 2:0.00272807 4:0.153917 5:0.102139 6:0.132325 
1 1:0.00699769 3:0.00864899 4:0.134197 5:0.105169 6:0.140592 
1 1:0.00272807 3:0.00410524 4:0.142772 5:0.0911971 6:0.143866 
1 2:0.00864899 4:0.145665 5:0.0998556 6:0.131863 
1 2:0.00410524 4:0.132325 5:0.103285 6:0.145305 
1 1:0.00864899 4:0.140592 5:0.0907127 6:0.138514 
1 1:0.00410524 4:0.143866 5:0.104792 6:0.127223 
1 3:0.00567436 4:0.131863 5:0.0976794 6:0.129535 
1 3:0.00450604 4:0.145305 5:0.0858528 6:0.137222 
1 2:0.00567436 4:0.138514 5:0.0882751 6:0.141517 
1 2:0.00450604 4:0.127223 5:0.0963261 6:0.138844 
1 1:0.00567436 3:0.00597008 4:0.129535 5:0.100824 6:0.131473 
1 1:0.00450604 3:0.00315124 4:0.137222 5:0.0980255 6:0.148484 
1 2:0.00597008 4:0.141517 5:0.0903051 6:0.128375 
1 2:0.00315124 4:0.138844 5:0.108122 6:0.146575 
1 1:0.00597008 4:0.131473 5:0.0870601 6:0.147397 
1 1:0.00315124 3:0.00147491 4:0.148484 5:0.106123 6:0.145077 
1 3:0.0051469 4:0.128375 5:0.106984 6:0.139182 
1 2:0.00147491 3:0.00369274 4:0.146575 5:0.104554 6:0.152426 
1 2:0.0051469 4:0.147397 5:0.0983792 6:0.126775 
1 1:0.00147491 2:0.00369274 4:0.145077 5:0.112251 6:0.143873 
1 1:0.0051469 3:0.00652381 4:0.139182 5:0.0853838 6:0.150356 
1 1:0.00369274 3:0.00417183 4:0.152426 5:0.103293 6:0.137097 
1 2:0.00652381 4:0.126775 5:0.110083 6:0.143536 
1 2:0.00417183 4:0.143873 5:0.0961953 6:0.136693 
1 1:0.00652381 3:0.00628453 4:0.150356 5:0.102939 6:0.154504 
1 1:0.00417183 3:0.00593471 4:0.137097 5:0.0957724 6:0.125674 
1 2:0.00628453 4:0.143536 5:0.114427 6:0.154218 
1 2:0.00593471 4:0.136693 5:0.0842303 6:0.138184 
1 1:0.00628453 4:0.154504 5:0.114127 6:0.146656 
1 1:0.00593471 4:0.125674 5:0.0973334 6:0.140496 
1 3:0.0071527 4:0.154218 5:0.106207 6:0.148043 
1 3:0.00343421 4:0.138184 5:0.0997556 6:0.147148 
1 2:0.0071527 4:0.146656 5:0.107661 6:0.148535 
1 2:0.00343421 4:0.140496 5:0.106722 6:0.136715 
1 1:0.0071527 3:0.00845445 4:0.148043 5:0.108176 6:0.142603 
1 1:0.00343421 3:0.00524573 4:0.147148 5:0.0957955 6:0.144086 
1 2:0.00845445 4:0.148535 5:0.101963 6:0.13941 
1 2:0.00524573 4:0.136715 5:0.103516 6:0.141436 
1 1:0.00845445 4:0.142603 5:0.0986176 6:0.144314 
1 1:0.00524573 4:0.144086 5:0.10074 6:0.143066 
1 3:0.00633889 4:0.13941 5:0.103754 6:0.151149 
1 3:0.00380822 4:0.141436 5:0.102447 6:0.137684 
1 2:0.00633889 4:0.144314 5:0.110913 6:0.144872 
1 2:0.00380822 4:0.143066 5:0.0968105 6:0.148293 
1 1:0.00633889 3:0.00585642 4:0.151149 5:0.104339 6:0.150143 
1 1:0.00380822 3:0.00459577 4:0.137684 5:0.107922 6:0.146773 
1 2:0.00585642 3:0.000307321 4:0.144872 5:0.10986 6:0.144042 
1 2:0.00459577 4:0.148293 5:0.10633 6:0.15305 
1 1:0.00585642 2:0.000307321 3:0.00624967 4:0.150143 5:0.10347 6:0.148609 
1 1:0.00459577 3:0.00393879 4:0.146773 5:0.112905 6:0.148543 
1 1:0.000307321 2:0.00624967 4:0.144042 5:0.108253 6:0.150973 
1 2:0.00393879 4:0.15305 5:0.108183 6:0.139043 
1 1:0.00624967 4:0.148609 5:0.110729 6:0.15145 
1 1:0.00393879 4:0.148543 5:0.0982331 6:0.140489 
1 3:0.00933277 4:0.150973 5:0.111229 6:0.139843 
1 3:0.00398976 4:0.139043 5:0.0997479 6:0.136268 
1 2:0.00933277 4:0.15145 5:0.0990713 6:0.144696 
1 2:0.00398976 4:0.140489 5:0.0953264 6:0.140783 
1 1:0.00933277 3:0.00514092 4:0.139843 5:0.104154 6:0.144967 
1 1:0.00398976 3:0.00441475 4:0.136268 5:0.100056 6:0.138756 
1 2:0.00514092 4:0.144696 5:0.104439 6:0.137633 
1 2:0.00441475 4:0.140783 5:0.0979332 6:0.14358 
1 1:0.00514092 4:0.144967 5:0.0967567 6:0.13626 
1 1:0.00441475 4:0.138756 5:0.102985 6:0.13466 
1 3:0.00430707 4:0.137633 5:0.0953187 6:0.141186 
1 3:0.00437964 4:0.14358 5:0.0936424 6:0.157367 
1 2:0.00430707 4:0.13626 5:0.100478 6:0.148132 
1 2:0.00437964 4:0.13466 5:0.117426 6:0.150195 
1 1:0.00430707 3:0.00629857 4:0.141186 5:0.107753 6:0.141458 
1 1:0.00437964 3:0.00423841 4:0.157367 5:0.109914 6:0.135049 
1 2:0.00629857 4:0.148132 5:0.100763 6:0.138521 
1 2:0.00423841 4:0.150195 5:0.0940499 6:0.132178 
1 1:0.00629857 3:0.00628583 4:0.141458 5:0.0976871 6:0.147111 
1 1:0.00423841 3:0.00426806 4:0.135049 5:0.0910433 6:0.151244 
1 2:0.00628583 4:0.138521 5:0.106684 6:0.143095 
1 2:0.00426806 4:0.132178 5:0.111013 6:0.137567 
1 1:0.00628583 4:0.147111 5:0.102478 6:0.13673 
1 1:0.00426806 4:0.151244 5:0.0966875 6:0.139322 
1 3:0.00641899 4:0.143095 5:0.0958109 6:0.143242 
1 3:0.00423555 4:0.137567 5:0.0985253 6:0.144057 
1 2:0.00641899 4:0.13673 5:0.102632 6:0.151648 
1 2:0.00423555 4:0.139322 5:0.103485 6:0.1475 
1 1:0.00641899 3:0.00306099 4:0.143242 5:0.111436 6:0.152735 
1 1:0.00423555 3:0.00345606 4:0.144057 5:0.107092 6:0.149886 
1 2:0.00306099 4:0.151648 5:0.112574 6:0.149996 
1 2:0.00345606 4:0.1475 5:0.109591 6:0.156545 
1 1:0.00306099 4:0.152735 5:0.109706 6:0.141737 
1 1:0.00345606 4:0.149886 5:0.116565 6:0.148565 
1 3:0.00685074 4:0.149996 5:0.101055 6:0.137773 
1 3:0.00360717 4:0.156545 5:0.108206 6:0.153807 
1 2:0.00685074 4:0.141737 5:0.0969028 6:0.137178 
1 2:0.00360717 4:0.148565 5:0.113697 6:0.148858 
1 1:0.00685074 3:0.00459135 4:0.137773 5:0.0962799 6:0.124536 
1 1:0.00360717 3:0.00367688 4:0.153807 5:0.108514 6:0.142684 
1 2:0.00459135 4:0.137178 5:0.0830384 6:0.13035 
1 2:0.00367688 4:0.148858 5:0.102047 6:0.155818 
1 1:0.00459135 3:0.00343603 4:0.124536 5:0.0891286 6:0.140496 
1 1:0.00367688 3:0.00335229 4:0.142684 5:0.115804 6:0.153476 
1 2:0.00343603 4:0.13035 5:0.0997556 6:0.152331 
1 2:0.00335229 4:0.155818 5:0.113351 6:0.148734 
1 1:0.00343603 4:0.140496 5:0.112151 6:0.141407 
1 1:0.00335229 4:0.153476 5:0.108383 6:0.150767 
1 3:0.0033359 4:0.152331 5:0.100709 6:0.136268 
1 3:0.00324643 4:0.148734 5:0.110513 6:0.144894 
1 2:0.0033359 4:0.141407 5:0.0953264 6:0.149526 
1 2:0.00324643 4:0.150767 5:0.104362 6:0.143323 
1 1:0.0033359 3:0.0039739 4:0.136268 5:0.109214 6:0.13883 
1 1:0.00324643 3:0.0026992 4:0.144894 5:0.102716 6:0.144431 
1 2:0.0039739 4:0.149526 5:0.0980101 6:0.140254 
1 2:0.0026992 4:0.143323 5:0.103877 6:0.139476 
1 1:0.0039739 4:0.13883 5:0.0995019 6:0.143741 
1 1:0.0026992 4:0.144431 5:0.0986868 6:0.140841 
1 3:0.00423581 4:0.140254 5:0.103154 6:0.136099 
1 3:0.00394243 4:0.139476 5:0.100117 6:0.134381 
1 2:0.00423581 4:0.143741 5:0.0951496 6:0.136994 
1 2:0.00394243 4:0.140841 5:0.0933502 6:0.143719 
1 1:0.00423581 3:0.00452008 4:0.136099 5:0.0960877 6:0.152661 
1 1:0.00394243 3:0.00494351 4:0.134381 5:0.103131 6:0.142266 
1 2:0.00452008 4:0.136994 5:0.112497 6:0.153667 
1 2:0.00494351 4:0.143719 5:0.101609 6:0.151105 
1 1:0.00452008 3:0.00239469 4:0.152661 5:0.113551 6:0.15308 
1 1:0.00494351 3:0.00681329 4:0.142266 5:0.110867 6:0.134586 
1 2:0.00239469 4:0.153667 5:0.112936 6:0.138918 
1 2:0.00681329 4:0.151105 5:0.0935655 6:0.141642 
1 1:0.00239469 4:0.15308 5:0.0981024 6:0.150664 
1 1:0.00681329 4:0.134586 5:0.100955 6:0.145129 
1 3:0.00492296 4:0.138918 5:0.110406 6:0.130027 
1 3:0.00402644 4:0.141642 5:0.104608 6:0.146406 
1 2:0.00492296 4:0.150664 5:0.0887903 6:0.145239 
1 2:0.00402644 4:0.145129 5:0.105946 6:0.143514 
1 1:0.00492296 3:0.00269608 4:0.130027 5:0.104723 6:0.141598 
1 1:0.00402644 3:0.00419861 4:0.146406 5:0.102916 6:0.153895 
1 2:0.00269608 4:0.145239 5:0.100909 6:0.141906 
1 2:0.00419861 4:0.143514 5:0.113789 6:0.146825 
1 1:0.00269608 4:0.141598 5:0.101232 6:0.14181 
1 1:0.00419861 4:0.153895 5:0.106384 6:0.153403 
1 3:0.00443764 4:0.141906 5:0.101132 6:0.140775 
1 3:0.00572586 4:0.146825 5:0.113274 6:0.156413 
1 2:0.00443764 4:0.14181 5:0.100048 6:0.150892 
1 2:0.00572586 4:0.153403 5:0.116427 6:0.150613 
1 1:0.00443764 3:0.00370575 4:0.140775 5:0.110644 6:0.134388 
1 1:0.00572586 3:0.0079028 4:0.156413 5:0.110352 6:0.147875 
1 2:0.00370575 4:0.150892 5:0.0933579 6:0.148007 
1 2:0.0079028 4:0.150613 5:0.107484 6:0.157367 
1 1:0.00370575 3:0.00183919 4:0.134388 5:0.107622 6:0.159115 
1 1:0.0079028 3:0.0112169 4:0.147875 5:0.117426 6:0.15783 
1 2:0.00183919 4:0.148007 5:0.119256 6:0.141098 
1 2:0.0112169 4:0.157367 5:0.117911 6:0.153777 
1 1:0.00183919 4:0.159115 5:0.100386 6:0.154511 
1 1:0.0112169 4:0.15783 5:0.113666 6:0.155539 
1 3:0.0020438 4:0.141098 5:0.114435 6:0.1562 
1 3:0.0150417 4:0.153777 5:0.115512 6:0.155914 
1 2:0.0020438 4:0.154511 5:0.116204 6:0.156222 
1 1:0.0020438 3:0.0027455 4:0.1562 5:0.116227 6:0.154115 
1 2:0.0027455 4:0.156222 5:0.11402 6:0.141069 
1 1:0.0027455 4:0.154115 5:0.100355 6:0.150055 
1 3:0.00317881 4:0.141069 5:0.109767 6:0.146098 
1 2:0.00317881 4:0.150055 5:0.105623 6:0.142155 
1 1:0.00317881 3:0.00342615 4:0.146098 5:0.101493 6:0.152632 
1 2:0.00342615 4:0.142155 5:0.112467 6:0.149747 
1 1:0.00342615 3:0.00165115 4:0.152632 5:0.109445 6:0.138375 
1 2:0.00165115 4:0.149747 5:0.0975333 6:0.137332 
1 2:0.0264562 4:0.263989 5:0.27687 6:0.291212 
1 1:0.00165115 4:0.138375 5:0.0964414 6:0.126099 
1 1:0.0264562 4:0.309595 5:0.257615 6:0.306798 
1 3:0.00313407 4:0.137332 5:0.0846763 6:0.14239 
1 3:0.0296631 4:0.291212 5:0.27394 6:0.348822 
1 2:0.00313407 4:0.126099 5:0.10174 6:0.14543 
1 2:0.0296631 4:0.306798 5:0.317956 6:0.349548 
1 1:0.00313407 3:0.00364072 4:0.14239 5:0.104923 6:0.141311 
1 1:0.0296631 3:0.0335281 4:0.348822 5:0.318717 6:0.327773 
1 2:0.00364072 4:0.14543 5:0.100609 6:0.138404 
1 2:0.0335281 4:0.349548 5:0.29591 6:0.323097 
1 1:0.00364072 4:0.141311 5:0.0975641 6:0.141972 
1 1:0.0335281 4:0.327773 5:0.291011 6:0.350826 
1 3:0.00333252 4:0.138404 5:0.101301 6:0.137934 
1 3:0.0294473 4:0.323097 5:0.320055 6:0.365605 
1 2:0.00333252 4:0.141972 5:0.097072 6:0.139468 
1 2:0.0294473 4:0.350826 5:0.335534 6:0.364004 
1 1:0.00333252 3:0.00174951 4:0.137934 5:0.0986791 6:0.141612 
1 1:0.0294473 3:0.0356218 4:0.365605 5:0.333858 6:0.336268 
1 2:0.00174951 4:0.139468 5:0.100924 6:0.141495 
1 2:0.0356218 4:0.364004 5:0.304806 6:0.335298 
1 1:0.00174951 3:0.0032056 4:0.141612 5:0.100801 6:0.155128 
1 1:0.0356218 3:0.0250866 4:0.336268 5:0.303791 
1 2:0.0032056 4:0.141495 5:0.115081 6:0.150452 
1 1:0.0032056 4:0.155128 5:0.110183 6:0.154695 
1 3:0.0035601 4:0.150452 5:0.114627 6:0.150239 
1 2:0.0035601 4:0.154695 5:0.10996 6:0.14982 
1 1:0.0035601 3:0.00248791 4:0.150239 5:0.109521 6:0.141891 
1 2:0.00248791 4:0.14982 5:0.101217 6:0.134337 
1 1:0.00248791 4:0.141891 5:0.0933041 6:0.141135 
1 3:0.00288334 4:0.134337 5:0.100425 6:0.137567 
1 2:0.00288334 4:0.141135 5:0.0966875 6:0.134895 
1 1:0.00288334 3:0.00242876 4:0.137567 5:0.0938885 6:0.145232 
1 2:0.00242876 4:0.134895 5:0.104715 6:0.152889 
1 1:0.00242876 3:0.00248112 4:0.145232 5:0.112736 6:0.134696 
1 2:0.00248112 4:0.152889 5:0.0936808 6:0.142721 
1 1:0.00248112 4:0.134696 5:0.102086 6:0.147221 
1 3:0.00284017 4:0.142721 5:0.106799 6:0.15054 
1 2:0.00284017 4:0.147221 5:0.110275 6:0.14601 
1 1:0.00284017 3:0.00214839 4:0.15054 5:0.105531 6:0.142295 
1 2:0.00214839 3:4.34712e-05 4:0.14601 5:0.10164 6:0.152757 
1 1:0.00214839 2:4.34712e-05 3:4.68628e-05 4:0.142295 5:0.112597 6:0.141664 
1 1:4.34712e-05 2:4.68628e-05 3:0.00257311 4:0.152757 5:0.100978 6:0.141686 
1 1:4.68628e-05 2:0.00257311 4:0.141664 5:0.101001 6:0.134373 
1 1:0.00257311 3:0.00233021 4:0.141686 5:0.0933425 6:0.142758 
1 2:0.00233021 4:0.134373 5:0.102124 6:0.139535 
1 1:0.00233021 3:0.0020947 4:0.142758 5:0.0987483 6:0.131664 
1 2:0.0020947 4:0.139535 5:0.090505 6:0.14579 
1 1:0.0020947 4:0.131664 5:0.1053 6:0.144321 
1 3:0.00272001 4:0.14579 5:0.103762 6:0.14079 
1 2:0.00272001 4:0.144321 5:0.100063 6:0.134836 
1 1:0.00272001 3:0.00297256 4:0.14079 5:0.0938269 6:0.147625 
1 2:0.00297256 4:0.134836 5:0.107222 6:0.142361 
1 1:0.00297256 4:0.147625 5:0.101709 6:0.136091 
1 3:0.00266643 4:0.142361 5:0.0951419 6:0.149842 
1 2:0.00266643 4:0.136091 5:0.109544 6:0.14217 
1 1:0.00266643 3:0.00325527 4:0.149842 5:0.101509 6:0.149842 
1 2:0.00325527 3:0.000436637 4:0.14217 5:0.109544 6:0.141825 
1 1:0.00325527 2:0.000436637 3:0.00209824 4:0.149842 5:0.101147 6:0.149181 
1 1:0.000436637 2:0.00209824 4:0.141825 5:0.108852 6:0.154541 
1 1:0.00209824 4:0.149181 5:0.114466 6:0.142603 
1 3:0.00240918 4:0.154541 5:0.101963 6:0.137053 
1 2:0.00240918 4:0.142603 5:0.0961492 6:0.13811 
1 1:0.00240918 3:0.00397078 4:0.137053 5:0.0972565 6:0.141693 
1 2:0.00397078 4:0.13811 5:0.101009 6:0.146179 
1 1:0.00397078 4:0.141693 5:0.105707 6:0.150165 
1 3:0.00439134 4:0.146179 5:0.109883 6:0.143947 
1 2:0.00439134 4:0.150165 5:0.10337 6:0.134425 
1 1:0.00439134 3:0.00314057 4:0.143947 5:0.0933963 6:0.135174 
1 2:0.00314057 4:0.134425 5:0.0941807 6:0.132009 
1 1:0.00314057 3:0.00381862 4:0.135174 5:0.0908664 6:0.159291 
1 2:0.00381862 4:0.132009 5:0.119441 6:0.143602 
1 1:0.00381862 4:0.159291 5:0.103008 6:0.143895 
1 3:0.00342043 4:0.143602 5:0.103316 6:0.141935 
1 2:0.00342043 4:0.143895 5:0.101263 6:0.141899 
1 1:0.00342043 3:0.00511673 4:0.141935 5:0.101224 6:0.144945 
1 2:0.00511673 4:0.141899 5:0.104416 6:0.138426 
1 1:0.00511673 4:0.144945 5:0.0975872 6:0.146135 
1 3:0.00263574 4:0.138426 5:0.105661 6:0.143132 
1 2:0.00263574 4:0.146135 5:0.102516 6:0.140445 
1 1:0.00263574 3:0.00460175 4:0.143132 5:0.0997018 6:0.143044 
1 2:0.00460175 4:0.140445 5:0.102424 6:0.154856 
1 1:0.00460175 3:0.00310286 4:0.143044 5:0.114796 6:0.137618 
1 2:0.00310286 4:0.154856 5:0.0967413 6:0.140107 
1 1:0.00310286 4:0.137618 5:0.0993481 6:0.144505 
1 3:0.0040527 4:0.140107 5:0.103954 6:0.139821 
1 2:0.0040527 4:0.144505 5:0.0990482 6:0.14427 
1 1:0.0040527 3:0.00390133 4:0.139821 5:0.103708 6:0.146605 
1 2:0.00390133 4:0.14427 5:0.106153 6:0.153953 
1 1:0.00390133 4:0.146605 5:0.113851 6:0.146509 
1 3:0.00367141 4:0.153953 5:0.106053 6:0.148205 
1 2:0.00367141 4:0.146509 5:0.10783 6:0.148484 
1 1:0.00367141 3:0.00621482 4:0.148205 5:0.108122 6:0.151421 
1 2:0.00621482 4:0.148484 5:0.111198 6:0.136113 
1 1:0.00621482 3:0.00370887 4:0.151421 5:0.0951649 6:0.150929 
1 2:0.00370887 4:0.136113 5:0.110683 6:0.146986 
1 1:0.00370887 4:0.150929 5:0.106553 6:0.150202 
1 3:0.00531283 4:0.146986 5:0.109921 6:0.147809 
1 2:0.00531283 4:0.150202 5:0.107414 6:0.144512 
1 1:0.00531283 3:0.00358715 4:0.147809 5:0.103962 6:0.143404 
1 2:0.00358715 4:0.144512 5:0.102801 6:0.138727 
1 1:0.00358715 4:0.143404 5:0.0979024 6:0.129484 
1 3:0.00630585 4:0.138727 5:0.0882212 6:0.135284 
1 2:0.00630585 4:0.129484 5:0.094296 6:0.148021 
1 1:0.00630585 3:0.00311456 4:0.135284 5:0.107637 6:0.147544 
1 2:0.00311456 4:0.148021 5:0.107138 6:0.153594 
1 1:0.00311456 3:0.00549802 4:0.147544 5:0.113474 6:0.146597 
1 2:0.00549802 4:0.153594 5:0.106146 6:0.135577 
1 1:0.00549802 4:0.146597 5:0.0946036 6:0.138477 
1 3:0.0041687 4:0.135577 5:0.097641 6:0.141561 
1 2:0.0041687 4:0.138477 5:0.100871 6:0.140562 
1 1:0.0041687 3:0.00436117 4:0.141561 5:0.0998248 6:0.16197 
1 2:0.00436117 4:0.140562 5:0.122248 6:0.140863 
1 1:0.00436117 4:0.16197 5:0.10014 6:0.154783 
1 3:0.00390601 4:0.140863 5:0.11472 6:0.153278 
1 2:0.00390601 4:0.154783 5:0.113143 6:0.148212 
1 1:0.00390601 3:0.00427794 4:0.153278 5:0.107837 6:0.154798 
1 2:0.00427794 4:0.148212 5:0.114735 6:0.148969 
1 1:0.00427794 3:0.00348493 4:0.154798 5:0.108629 6:0.151134 
1 2:0.00348493 4:0.148969 5:0.110898 6:0.145437 
1 1:0.00348493 4:0.151134 5:0.104931 6:0.147779 
1 3:0.00412163 4:0.145437 5:0.107384 6:0.133015 
1 2:0.00412163 4:0.147779 5:0.0919199 6:0.138375 
1 1:0.00412163 3:0.00442775 4:0.133015 5:0.0975333 6:0.144064 
1 2:0.00442775 4:0.138375 5:0.103493 6:0.147471 
1 1:0.00442775 4:0.144064 5:0.107061 6:0.153726 
1 3:0.00640677 4:0.147471 5:0.113612 6:0.160399 
1 2:0.00640677 4:0.153726 5:0.120602 6:0.154724 
1 1:0.00640677 3:0.00532428 4:0.160399 5:0.114658 6:0.149548 
1 2:0.00532428 4:0.154724 5:0.109237 6:0.149321 
1 1:0.00532428 3:0.00629701 4:0.149548 5:0.108999 6:0.153528 
1 2:0.00629701 4:0.149321 5:0.113405 6:0.156369 
1 1:0.00629701 4:0.153528 5:0.116381 6:0.152735 
1 3:0.00377415 4:0.156369 5:0.112574 6:0.151597 
1 2:0.00377415 4:0.152735 5:0.111382 6:0.148469 
1 1:0.00377415 3:0.00505223 4:0.151597 5:0.108107 6:0.158006 
1 2:0.00505223 4:0.148469 5:0.118095 6:0.151523 
1 1:0.00505223 4:0.158006 5:0.111305 6:0.158336 
1 3:0.0034995 4:0.151523 5:0.118441 6:0.153579 
1 2:0.0034995 4:0.158336 5:0.113458 6:0.163461 
1 2:0.0026438 4:0.164423 5:0.114835 6:0.15344 
1 1:0.0026438 4:0.154893 5:0.113312 6:0.15562 
1 3:0.00301261 4:0.15344 5:0.115596 6:0.154886 
1 2:0.00301261 4:0.15562 5:0.114827 6:0.150231 
1 1:1.79407e-05 2:0.00305292 4:0.157742 5:0.107384 6:0.158065 
1 1:0.00305292 4:0.147779 5:0.118157 6:0.160744 
1 3:0.00331873 4:0.158065 5:0.120964 6:0.142985 
1 2:0.00331873 4:0.160744 5:0.102362 6:0.161897 
1 1:0.00331873 3:0.00226129 4:0.142985 5:0.122171 6:0.16545 
1 2:0.0289037 5:0.157481 6:0.215065 
1 1:0.00838604 4:0.151692 5:0.11495 6:0.153491 
1 3:0.00683826 4:0.155003 5:0.113366 6:0.165832 
1 2:0.00931846 4:0.154651 5:0.124078 6:0.143 
1 1:0.00931846 3:0.010351 4:0.163718 5:0.102378 6:0.159034 
1 2:0.010351 4:0.143 5:0.119172 6:0.16429 
1 3:0.00442983 4:0.155539 5:0.114958 6:0.156853 
1 2:0.00442983 4:0.155011 5:0.116888 6:0.157911 
1 1:0.00442983 3:0.00471151 4:0.156853 5:0.117995 6:0.152096 
1 2:0.00471151 4:0.157911 5:0.111905 6:0.147405 
1 1:0.00471151 3:0.00337595 4:0.152096 5:0.106992 6:0.137259 
1 2:0.00337595 4:0.147405 5:0.0963645 6:0.145246 
1 1:0.00337595 4:0.137259 5:0.104731 6:0.147243 
1 3:0.00403684 4:0.145246 5:0.106822 6:0.147184 
1 2:0.00403684 4:0.147243 5:0.106761 6:0.160524 
1 1:0.00403684 3:0.00327244 4:0.147184 5:0.120733 6:0.157287 
1 2:0.00327244 4:0.160524 5:0.117342 6:0.148036 
1 1:0.00327244 4:0.157287 5:0.107653 6:0.149916 
1 3:0.00238923 4:0.148036 5:0.109621 6:0.143793 
1 2:0.00238923 4:0.149916 5:0.103208 6:0.159504 
1 1:0.00238923 3:0.00325475 4:0.143793 5:0.119664 6:0.149387 
1 2:0.00325475 4:0.159504 5:0.109068 6:0.150217 
1 1:0.00325475 3:0.00417157 4:0.149387 5:0.109937 6:0.156736 
1 2:0.00417157 4:0.150217 5:0.116765 6:0.149607 
1 1:0.00417157 4:0.156736 5:0.109298 6:0.144989 
1 3:0.00616775 4:0.149607 5:0.104462 6:0.150591 
1 2:0.00616775 4:0.144989 5:0.110329 6:0.144365 
1 1:0.00616775 3:0.00572638 4:0.150591 5:0.103808 6:0.147309 
1 2:0.00572638 4:0.144365 5:0.106892 6:0.156413 
1 1:0.00572638 4:0.147309 5:0.116427 6:0.15479 
1 3:0.00384229 4:0.156413 5:0.114727 6:0.153608 
1 2:0.00384229 4:0.15479 5:0.113489 6:0.156846 
1 1:0.00384229 3:0.00658103 4:0.153608 5:0.11688 6:0.14692 
1 2:0.00658103 4:0.156846 5:0.106484 6:0.157316 
1 1:0.00658103 3:0.00449017 4:0.14692 5:0.117372 6:0.150635 
1 2:0.00449017 4:0.157316 5:0.110375 6:0.153168 
1 1:0.00449017 4:0.150635 5:0.113028 6:0.154482 
1 3:0.00658597 4:0.153168 5:0.114404 6:0.134645 
1 2:0.00658597 4:0.154482 5:0.093627 6:0.152096 
1 1:0.00658597 3:0.0059862 4:0.134645 5:0.111905 6:0.154122 
1 2:0.0059862 4:0.152096 5:0.114028 6:0.157947 
1 1:0.0059862 4:0.154122 5:0.118034 6:0.151788 
1 3:0.0062065 4:0.157947 5:0.111582 6:0.140526 
1 2:0.0062065 4:0.151788 5:0.0997864 6:0.139571 
1 1:0.0062065 3:0.00364436 4:0.140526 5:0.0987867 6:0.137038 
1 2:0.00364436 4:0.139571 5:0.0961338 6:0.143022 
1 1:0.00364436 3:0.00427898 4:0.137038 5:0.102401 6:0.149659 
1 2:0.00427898 4:0.143022 5:0.109352 6:0.160722 
1 1:0.00427898 4:0.149659 5:0.12094 6:0.138441 
1 3:0.00240057 4:0.160722 5:0.0976025 6:0.14996 
1 2:0.00240057 4:0.138441 5:0.109668 6:0.16396 
1 1:0.00240057 3:0.00545848 4:0.14996 5:0.124332 6:0.150422 
1 2:0.00545848 4:0.16396 5:0.110152 6:0.1467 
1 1:0.00545848 4:0.150422 5:0.106253 6:0.14772 
1 3:0.00193033 4:0.1467 5:0.107322 6:0.144542 
1 2:0.00193033 4:0.14772 5:0.103993 6:0.15178 
1 1:0.00193033 3:0.00362434 4:0.144542 5:0.111575 6:0.157602 
1 2:0.00362434 4:0.15178 5:0.117672 6:0.152838 
1 1:0.00362434 3:0.00556434 4:0.157602 5:0.112682 6:0.145496 
1 2:0.00556434 4:0.152838 5:0.104992 6:0.158329 
1 1:0.00556434 4:0.145496 5:0.118434 6:0.15076 
1 3:0.00996036 4:0.158329 5:0.110506 6:0.155268 
1 2:0.00996036 4:0.15076 5:0.115227 6:0.145907 
1 2:0.0611521 5:0.413983 6:0.397812 
1 1:0.00996036 3:0.00758315 4:0.155268 5:0.105423 6:0.152977 
1 1:0.0611521 3:0.0628739 4:0.440504 5:0.369268 6:0.363057 
1 2:0.00758315 4:0.145907 5:0.112828 6:0.147787 
1 2:0.0628739 4:0.397812 5:0.332866 6:0.404346 
1 1:0.00758315 4:0.152977 5:0.107391 6:0.150253 
1 1:0.0628739 4:0.363057 5:0.376112 6:0.377087 
1 3:0.00711525 4:0.147787 5:0.109975 6:0.158571 
1 3:0.0657036 4:0.404346 5:0.347561 6:0.425879 
1 2:0.00711525 4:0.150253 5:0.118687 6:0.140592 
1 2:0.0657036 4:0.377087 5:0.398666 6:0.384362 
1 1:0.00711525 3:0.00896812 4:0.158571 5:0.0998556 6:0.150488 
1 1:0.0657036 3:0.0580986 4:0.425879 5:0.355181 6:0.360627 
1 2:0.00896812 4:0.140592 5:0.110221 6:0.151046 
1 2:0.0580986 4:0.384362 5:0.330321 6:0.360972 
1 1:0.00896812 3:0.0139826 4:0.150488 5:0.110806 6:0.141627 
1 1:0.0580986 3:0.0534665 4:0.360627 5:0.330682 6:0.328853 
1 2:0.0139826 4:0.151046 5:0.10094 6:0.163923 
1 2:0.0534665 4:0.360972 5:0.29704 6:0.330541 
1 1:0.0139826 4:0.141627 5:0.124293 6:0.148741 
1 1:0.0534665 4:0.328853 5:0.298809 6:0.342662 
1 3:0.0108696 4:0.163923 5:0.108391 6:0.137273 
1 3:0.0481554 4:0.330541 5:0.311504 6:0.318765 
1 2:0.0108696 4:0.148741 5:0.0963799 6:0.150437 
1 2:0.0481554 4:0.342662 5:0.286474 6:0.314867 
1 1:0.0108696 3:0.0136219 4:0.137273 5:0.110167 6:0.147713 
1 1:0.0481554 3:0.0437001 4:0.318765 5:0.282391 6:0.317157 
1 2:0.0136219 4:0.150437 5:0.107314 6:0.152962 
1 2:0.0437001 4:0.314867 5:0.28479 6:0.295727 
1 1:0.0136219 4:0.147713 5:0.112813 6:0.149145 
1 1:0.0437001 4:0.317157 5:0.262344 6:0.304427 
1 3:0.0113185 4:0.152962 5:0.108814 6:0.14217 
1 3:0.0355333 4:0.295727 5:0.271457 6:0.289325 
1 2:0.0113185 4:0.149145 5:0.101509 6:0.142559 
1 2:0.0355333 4:0.304427 5:0.255639 6:0.270347 
1 1:0.0113185 3:0.0105604 4:0.14217 5:0.101916 6:0.145129 
1 1:0.0355333 3:0.0367297 4:0.289325 5:0.235762 6:0.301777 
1 2:0.0105604 4:0.142559 5:0.104608 6:0.149446 
1 2:0.0367297 4:0.270347 5:0.268681 6:0.29536 
1 1:0.0105604 3:0.00660184 4:0.145129 5:0.109129 6:0.153873 
1 1:0.0367297 3:0.0344046 4:0.301777 5:0.26196 6:0.283445 
1 2:0.00660184 4:0.149446 5:0.113766 6:0.148469 
1 2:0.0344046 4:0.29536 5:0.24948 6:0.288092 
1 1:0.00660184 4:0.153873 5:0.108107 6:0.150393 
1 1:0.0344046 4:0.283445 5:0.254347 6:0.285904 
1 3:0.00768797 4:0.148469 5:0.110121 6:0.147632 
1 3:0.0306177 4:0.288092 5:0.252056 6:0.303443 
1 2:0.00768797 4:0.150393 5:0.10723 6:0.139718 
1 2:0.0306177 4:0.285904 5:0.270426 6:0.305682 
1 1:0.00768797 3:0.0119251 4:0.147632 5:0.0989405 6:0.147684 
1 1:0.0306177 3:0.0282456 4:0.303443 5:0.272772 6:0.306585 
1 2:0.0119251 4:0.139718 5:0.107284 6:0.134755 
1 2:0.0282456 4:0.305682 5:0.273717 6:0.327641 
1 1:0.0119251 4:0.147684 5:0.0937424 6:0.144989 
1 1:0.0282456 4:0.306585 5:0.295771 6:0.30928 
1 3:0.0124676 4:0.134755 5:0.104462 6:0.152845 
1 3:0.0242099 4:0.327641 5:0.276539 6:0.323067 
1 2:0.0124676 4:0.144989 5:0.11269 6:0.143484 
1 2:0.0242099 4:0.30928 5:0.290981 6:0.307518 
1 1:0.0124676 3:0.0092472 4:0.152845 5:0.102885 6:0.145958 
1 1:0.0242099 3:0.0222844 4:0.323067 5:0.274694 6:0.310711 
1 2:0.0092472 4:0.143484 5:0.105477 6:0.14833 
1 2:0.0222844 4:0.307518 5:0.278039 6:0.313487 
1 1:0.0092472 3:0.00601351 4:0.145958 5:0.10796 6:0.150474 
1 1:0.0222844 3:0.0175019 4:0.310711 5:0.280946 6:0.298179 
1 2:0.00601351 4:0.14833 5:0.110206 6:0.148579 
1 2:0.0175019 4:0.313487 5:0.264913 6:0.304772 
1 1:0.00601351 4:0.150474 5:0.108222 6:0.150136 
1 1:0.0175019 4:0.298179 5:0.271818 6:0.296946 
1 3:0.00818422 4:0.148579 5:0.109852 6:0.155914 
1 3:0.0144828 4:0.304772 5:0.263621 6:0.309368 
1 2:0.00818422 4:0.150136 5:0.115904 6:0.163659 
1 2:0.0144828 4:0.296946 5:0.276632 6:0.302048 
1 1:0.0144828 3:0.0147405 4:0.309368 5:0.268965 6:0.302709 
1 2:0.00968389 4:0.163659 5:0.113036 6:0.140621 
1 2:0.0147405 4:0.302048 5:0.269657 6:0.308083 
1 1:0.00968389 4:0.153175 5:0.0998863 6:0.148506 
1 1:0.0147405 4:0.302709 5:0.275286 6:0.296674 
1 3:0.00367271 4:0.140621 5:0.108145 6:0.136011 
1 3:0.013186 4:0.308083 5:0.263336 6:0.307584 
1 2:0.00367271 4:0.148506 5:0.0950573 6:0.148396 
1 2:0.013186 4:0.296674 5:0.274763 6:0.304669 
1 1:0.00367271 3:0.00576383 4:0.136011 5:0.10803 6:0.16711 
1 1:0.013186 3:0.0153681 4:0.307584 5:0.27171 6:0.281073 
1 2:0.00576383 4:0.148396 5:0.12763 6:0.151391 
1 2:0.0153681 4:0.304669 5:0.246996 6:0.286095 
1 1:0.00576383 3:0.00848592 4:0.16711 5:0.111167 6:0.153072 
1 2:0.00848592 4:0.151391 5:0.112928 6:0.153315 
1 1:0.00848592 4:0.153072 5:0.113182 6:0.148198 
1 3:0.00898243 4:0.153315 5:0.107822 6:0.159629 
1 2:0.00898243 4:0.148198 5:0.119795 6:0.155304 
1 1:0.00898243 3:0.00396688 4:0.159629 5:0.115266 6:0.155657 
1 2:0.00396688 4:0.155304 5:0.115635 6:0.146127 
1 1:0.00396688 4:0.155657 5:0.105654 6:0.152155 
1 3:0.0039224 4:0.146127 5:0.111967 6:0.15471 
1 2:0.0039224 4:0.152155 5:0.114643 6:0.14449 
1 1:0.0039224 3:0.00419445 4:0.15471 5:0.103939 6:0.154276 
1 2:0.00419445 4:0.14449 5:0.114189 6:0.151215 
1 1:0.00419445 3:0.00524937 4:0.154276 5:0.110982 6:0.145276 
1 2:0.00524937 4:0.151215 5:0.104762 6:0.14772 
1 1:0.00524937 4:0.145276 5:0.107322 6:0.14565 
1 3:0.00528006 4:0.14772 5:0.105154 6:0.155583 
1 2:0.00528006 4:0.14565 5:0.115558 6:0.151876 
1 1:0.00528006 3:0.00898061 4:0.155583 5:0.111675 6:0.152169 
1 2:0.00898061 4:0.151876 5:0.111982 6:0.148161 
1 1:0.00898061 4:0.152169 5:0.107784 6:0.154225 
1 3:0.00403814 4:0.148161 5:0.114135 6:0.173409 
1 3:0.00903939 4:0.164775 5:0.129184 6:0.140687 
1 2:0.00903939 4:0.168593 5:0.0999556 6:0.144703 
1 1:0.00903939 3:0.00478173 4:0.140687 5:0.104162 6:0.156442 
1 2:0.00478173 4:0.144703 5:0.116457 6:0.146384 
1 1:0.00478173 3:0.00912444 4:0.156442 5:0.105923 6:0.155583 
1 2:0.00912444 4:0.146384 5:0.115558 6:0.141414 
1 1:0.00912444 4:0.155583 5:0.100717 6:0.14833 
1 3:0.00439862 4:0.141414 5:0.10796 6:0.137552 
1 2:0.00439862 4:0.14833 5:0.0966721 6:0.149945 
1 1:0.00439862 3:0.00639532 4:0.137552 5:0.109652 6:0.146803 
1 2:0.00639532 4:0.149945 5:0.106361 6:0.149982 
1 1:0.00639532 4:0.146803 5:0.109691 6:0.141877 
1 3:0.00544366 4:0.149982 5:0.101201 6:0.147537 
1 2:0.00544366 4:0.141877 5:0.10713 6:0.142479 
1 1:0.00544366 3:0.00785 4:0.147537 5:0.101832 6:0.159753 
1 2:0.00785 4:0.142479 5:0.119925 6:0.162881 
1 2:0.00859073 4:0.162881 5:0.116534 6:0.142222 
1 1:0.00859073 3:0.00110712 4:0.156516 5:0.101563 6:0.152419 
1 2:0.00110712 3:0.00738886 4:0.142222 5:0.112244 6:0.1393 
1 2:0.00111474 3:0.0146126 4:0.29028 5:0.246166 6:0.309757 
1 1:0.00110712 2:0.00738886 4:0.152419 5:0.0985022 6:0.149541 
1 1:0.00111474 2:0.0146126 4:0.28028 5:0.277039 6:0.287314 
1 1:0.00738886 3:0.00376505 4:0.1393 5:0.109229 6:0.12756 
1 1:0.0146126 3:0.0109804 4:0.309757 5:0.253532 6:0.287204 
1 2:0.00376505 4:0.149541 5:0.0862066 6:0.132633 
1 2:0.0109804 4:0.287314 5:0.253417 6:0.292798 
1 1:0.00376505 4:0.12756 5:0.0915201 6:0.142985 
1 1:0.0109804 4:0.287204 5:0.259276 6:0.281954 
1 3:0.00216389 4:0.132633 5:0.102362 6:0.138426 
1 3:0.00989196 4:0.292798 5:0.247919 6:0.289854 
1 2:0.00216389 4:0.142985 5:0.0975872 6:0.133441 
1 2:0.00989196 4:0.281954 5:0.256193 6:0.286895 
1 1:0.00216389 3:0.00477289 4:0.138426 5:0.0923659 6:0.138059 
1 1:0.00989196 3:0.0135678 4:0.289854 5:0.253094 6:0.28666 
1 2:0.00477289 4:0.133441 5:0.0972027 6:0.130607 
1 2:0.0135678 4:0.286895 5:0.252848 6:0.303986 
1 1:0.00477289 3:0.00426936 4:0.138059 5:0.0893977 6:0.129102 
1 1:0.0135678 3:0.0108135 4:0.28666 5:0.270995 6:0.285398 
1 2:0.00426936 4:0.130607 5:0.0878214 6:0.128507 
1 2:0.0108135 4:0.303986 5:0.251525 6:0.301953 
1 1:0.00426936 4:0.129102 5:0.0871985 6:0.1293 
1 1:0.0108135 4:0.285398 5:0.268865 6:0.253285 
1 3:0.0056122 4:0.128507 5:0.088029 6:0.136936 
1 3:0.00953356 4:0.301953 5:0.217891 6:0.301622 
1 2:0.0056122 4:0.1293 5:0.0960262 6:0.137765 
1 2:0.00953356 3:6.57245e-05 4:0.253285 5:0.268519 6:0.286932 
1 1:0.0056122 3:0.00333876 4:0.136936 5:0.0968951 6:0.130402 
1 1:0.00953356 2:6.57245e-05 3:0.00996348 4:0.301622 5:0.253132 6:0.288554 
1 2:0.00333876 4:0.137765 5:0.0891824 6:0.135636 
1 1:6.57245e-05 2:0.00996348 4:0.286932 5:0.254832 6:0.295257 
1 1:0.00333876 4:0.130402 5:0.0946651 6:0.134755 
1 1:0.00996348 4:0.288554 5:0.261852 6:0.279972 
1 3:0.00464181 4:0.135636 5:0.0937424 6:0.139307 
1 3:0.00741045 4:0.295257 5:0.245843 6:0.282131 
1 2:0.00464181 4:0.134755 5:0.0985099 6:0.144615 
1 1:0.00464181 3:0.00675295 4:0.139307 5:0.104069 6:0.140166 
1 2:0.00675295 4:0.144615 5:0.0994096 6:0.136906 
1 1:0.00675295 3:0.00982382 4:0.140166 5:0.0959954 6:0.138962 
1 2:0.00982382 4:0.136906 5:0.0981485 6:0.137178 
1 2:0.0160579 4:0.296373 5:0.238568 6:0.282835 
1 1:0.00982382 4:0.138962 5:0.0962799 6:0.132303 
1 3:0.00544444 4:0.137178 5:0.091174 6:0.133302 
1 2:0.00544444 4:0.132303 5:0.0922198 6:0.134425 
1 1:0.00544444 3:0.00490241 4:0.133302 5:0.0933963 6:0.143022 
1 2:0.00490241 4:0.134425 5:0.102401 6:0.14206 
1 1:0.00490241 4:0.143022 5:0.101394 6:0.131231 
1 3:0.00466599 4:0.14206 5:0.0900514 6:0.128104 
1 2:0.00466599 4:0.131231 5:0.0867756 6:0.142677 
1 1:0.00466599 3:0.00841543 4:0.128104 5:0.102039 6:0.134718 
1 2:0.00841543 4:0.142677 5:0.0937039 6:0.128515 
1 1:0.00841543 3:0.00870127 4:0.134718 5:0.0872062 6:0.134616 
1 2:0.00870127 4:0.128515 5:0.0935963 6:0.127083 
1 1:0.00870127 4:0.134616 5:0.0857067 6:0.129836 
1 3:0.00947218 4:0.127083 5:0.0885903 6:0.130079 
1 2:0.00947218 4:0.129836 5:0.0888441 6:0.129961 
1 2:0.063688 4:0.250151 5:0.269211 6:0.293855 
1 1:0.00947218 3:0.00875875 4:0.130079 5:0.0887211 6:0.134124 
1 1:0.063688 3:0.0636697 4:0.302283 5:0.260384 6:0.335959 
1 2:0.00875875 4:0.129961 5:0.0930811 6:0.126613 
1 2:0.0636697 4:0.293855 5:0.304483 6:0.321966 
1 1:0.00875875 4:0.134124 5:0.0852146 6:0.128023 
1 1:0.0636697 4:0.335959 5:0.289827 6:0.32306 
1 3:0.00734439 4:0.126613 5:0.086691 6:0.126188 
1 3:0.0628921 4:0.321966 5:0.290973 6:0.292468 
1 2:0.00734439 4:0.128023 5:0.0847686 6:0.140724 
1 2:0.0628921 4:0.32306 5:0.25893 6:0.295448 
1 1:0.00734439 3:0.00563456 4:0.126188 5:0.099994 6:0.124558 
1 1:0.0628921 3:0.037471 4:0.292468 5:0.262052 
1 2:0.00563456 4:0.140724 5:0.0830615 6:0.127421 
1 1:0.00563456 3:0.00602808 4:0.124558 5:0.0860604 6:0.132244 
1 2:0.00602808 4:0.127421 5:0.0911125 6:0.13477 
1 1:0.00602808 4:0.132244 5:0.0937577 6:0.136238 
1 3:0.00904459 4:0.13477 5:0.0952957 6:0.126782 
1 2:0.00904459 4:0.136238 5:0.0853915 6:0.126613 
1 1:0.00904459 3:0.00607359 4:0.126782 5:0.0852146 6:0.134836 
1 2:0.00607359 4:0.126613 5:0.0938269 6:0.119962 
1 1:0.00607359 4:0.134836 5:0.0782478 6:0.128596 
1 3:0.00497394 4:0.119962 5:0.0872908 6:0.115704 
1 2:0.00497394 4:0.128596 5:0.0737879 6:0.135996 
1 1:0.00497394 3:0.00649754 4:0.115704 5:0.0950419 6:0.126496 
1 2:0.00649754 4:0.135996 5:0.0850916 6:0.133735 
1 1:0.00649754 3:0.00444024 4:0.126496 5:0.0926735 6:0.139388 
1 2:0.00444024 4:0.133735 5:0.0985945 6:0.128016 
1 1:0.00444024 4:0.139388 5:0.0866833 6:0.121151 
1 3:0.00777015 4:0.128016 5:0.0794935 6:0.125431 
1 2:0.00777015 4:0.121151 5:0.0839766 6:0.119323 
1 1:0.00777015 3:0.00725336 4:0.125431 5:0.0775788 6:0.12306 
1 2:0.00725336 4:0.119323 5:0.0814928 6:0.126511 
1 1:0.00725336 4:0.12306 5:0.0851069 6:0.124866 
1 3:0.00554822 4:0.126511 5:0.0833845 6:0.116651 
1 2:0.00554822 4:0.124866 5:0.0747798 6:0.128654 
1 1:0.00554822 3:0.00445506 4:0.116651 5:0.0873523 6:0.122671 
1 2:0.00445506 4:0.128654 5:0.0810853 6:0.121753 
1 1:0.00445506 3:0.00540777 4:0.122671 5:0.0801241 6:0.12342 
1 2:0.00540777 4:0.121753 5:0.0818696 6:0.114529 
1 1:0.00540777 4:0.12342 5:0.0725575 6:0.124763 
1 3:0.0081244 4:0.114529 5:0.0832768 6:0.122744 
1 2:0.0081244 4:0.124763 5:0.0811622 6:0.11726 
1 1:0.0081244 3:0.00458225 4:0.122744 5:0.075418 6:0.121349 
1 2:0.00458225 4:0.11726 5:0.0797012 6:0.1264 
1 1:0.00458225 4:0.121349 5:0.0849916 6:0.136025 
1 3:0.00537604 4:0.1264 5:0.0950727 6:0.125857 
1 2:0.00537604 4:0.136025 5:0.0844226 6:0.116247 
1 1:0.00537604 3:0.00439212 4:0.125857 5:0.0743569 6:0.128324 
1 2:0.00439212 4:0.116247 5:0.0870063 6:0.11867 
1 1:0.00439212 3:0.00620338 4:0.128324 5:0.0768944 6:0.124433 
1 2:0.00620338 4:0.11867 5:0.0829308 6:0.11933 
1 1:0.00620338 4:0.124433 5:0.0775865 6:0.122098 
1 3:0.00709886 4:0.11933 5:0.0804855 6:0.123288 
1 2:0.00709886 4:0.122098 5:0.0817312 6:0.12524 
1 1:0.00709886 3:0.00560648 4:0.123288 5:0.0837766 6:0.127421 
1 2:0.00560648 4:0.12524 5:0.0860604 6:0.121577 
1 1:0.00560648 4:0.127421 5:0.0799395 6:0.124044 
1 3:0.00606319 4:0.121577 5:0.0825232 6:0.122348 
1 2:0.00606319 4:0.124044 5:0.0807469 6:0.127091 
1 1:0.00606319 3:0.0145619 4:0.122348 5:0.0857144 6:0.127318 
1 2:0.0145619 4:0.127091 5:0.0859528 6:0.126474 
1 1:0.0145619 3:0.0149062 4:0.127318 5:0.0850685 6:0.148866 
1 2:0.0149062 4:0.126474 5:0.108522 6:0.14104 
1 1:0.0149062 4:0.148866 5:0.100325 6:0.150591 
1 3:0.0168171 4:0.14104 5:0.110329 6:0.191432 
1 1:0.00956815 3:0.0126164 4:0.271096 5:0.243351 6:0.318963 
1 2:0.0126164 4:0.277593 5:0.286682 6:0.305719 
1 1:0.0126164 4:0.318963 5:0.27281 6:0.319536 
1 3:0.00731552 4:0.305719 5:0.287282 6:0.295448 
1 2:0.00731552 4:0.319536 5:0.262052 6:0.300411 
1 1:0.00731552 3:0.0084287 4:0.295448 5:0.26725 6:0.308267 
1 2:0.0084287 4:0.300411 5:0.275478 6:0.32516 
1 1:0.0084287 3:0.00760552 4:0.308267 5:0.293172 6:0.326569 
1 2:0.00760552 4:0.32516 5:0.294649 6:0.315036 
1 1:0.00760552 4:0.326569 5:0.282568 6:0.33524 
1 3:0.0101638 4:0.315036 5:0.30373 6:0.334594 
1 2:0.0101638 4:0.33524 5:0.303053 6:0.340907 
1 1:0.0101638 3:0.0183722 4:0.334594 5:0.309666 6:0.281595 
1 2:0.0183722 4:0.340907 5:0.247542 6:0.285251 
1 2:0.0121285 4:0.227436 5:0.119456 6:0.107584 
1 1:0.0121285 3:0.0120569 4:0.159305 5:0.0652832 6:0.109309 
1 2:0.0120569 4:0.107584 5:0.0670902 6:0.111372 
1 1:0.0120569 3:0.0167099 4:0.109309 5:0.069251 6:0.105176 
1 2:0.0167099 4:0.111372 5:0.062761 6:0.106703 
1 1:0.0167099 4:0.105176 5:0.0643604 6:0.0970927 
1 3:0.00487641 4:0.106703 5:0.0542947 6:0.109206 
1 2:0.00487641 4:0.0970927 5:0.0669826 6:0.104126 
1 1:0.00487641 3:0.00570661 4:0.109206 5:0.0616614 6:0.101843 
1 2:0.00570661 4:0.104126 5:0.0592699 6:0.0939505 
1 1:0.00570661 4:0.101843 5:0.0510036 6:0.0894281 
1 3:0.00654514 4:0.0939505 5:0.0462668 6:0.094648 
1 2:0.00899491 4:0.158417 5:0.112566 6:0.161523 
1 2:0.00654514 4:0.0894281 5:0.0517341 6:0.114793 
1 1:0.00654514 3:0.00511049 4:0.094648 5:0.0728343 6:0.104823 
1 2:0.00511049 4:0.114793 5:0.0623919 6:0.119954 
1 1:0.00511049 3:0.0156308 4:0.104823 5:0.0782401 6:0.0960062 
1 2:0.0156308 4:0.119954 5:0.0531567 6:0.124638 
1 1:0.00720368 4:0.159239 5:0.114097 6:0.159863 
1 1:0.0156308 4:0.0960062 5:0.0831461 6:0.101843 
1 3:0.00654436 4:0.124638 5:0.0592699 6:0.097915 
1 2:0.00654436 4:0.101843 5:0.055156 6:0.0969532 
1 1:0.00654436 3:0.0152568 4:0.097915 5:0.0541486 6:0.109074 
1 2:0.0152568 4:0.0969532 5:0.0668441 6:0.105051 
1 1:0.0152568 4:0.109074 5:0.0626302 6:0.11668 
1 3:0.00952575 4:0.105051 5:0.0748106 6:0.0976727 
1 2:0.00952575 4:0.11668 5:0.0549022 6:0.133023 
1 1:0.00952575 3:0.0144648 4:0.0976727 5:0.0919276 6:0.141098 
1 2:0.0144648 4:0.133023 5:0.100386 6:0.103069 
1 1:0.0144648 3:0.0105305 4:0.141098 5:0.0605541 6:0.18724 
1 2:0.0105305 4:0.103069 5:0.148715 6:0.181536 
1 2:0.0121279 4:0.168079 5:0.108791 6:0.147045 
1 1:0.0121279 3:0.0110314 4:0.149123 5:0.106615 6:0.12756 
1 2:0.0110314 4:0.147045 5:0.0862066 6:0.14206 
1 1:0.0110314 4:0.12756 5:0.101394 6:0.134241 
1 3:0.0137943 4:0.14206 5:0.0932041 6:0.138433 
1 2:0.0137943 4:0.134241 5:0.0975948 6:0.13811 
1 1:0.0137943 3:0.0186962 4:0.138433 5:0.0972565 6:0.133316 
1 2:0.0186962 4:0.13811 5:0.0922352 6:0.137185 
1 1:0.0186962 3:0.0125558 4:0.133316 5:0.0962876 6:0.120784 
1 2:0.0125558 4:0.137185 5:0.0791091 6:0.118949 
1 1:0.0125558 4:0.120784 5:0.0771867 6:0.12621 
1 3:0.00968441 4:0.118949 5:0.0847917 6:0.143741 
1 2:0.00968441 4:0.12621 5:0.103154 6:0.136759 
1 1:0.00968441 3:0.00958583 4:0.143741 5:0.0958416 6:0.139116 
1 2:0.00958583 4:0.136759 5:0.09831 6:0.136488 
1 1:0.00958583 4:0.139116 5:0.0955571 6:0.135019 
1 3:0.0241773 4:0.136488 5:0.0940192 6:0.139975 
1 2:0.0241773 4:0.135019 5:0.0992097 6:0.148983 
1 1:0.0241773 3:0.030316 4:0.139975 5:0.108645 6:0.175178 
1 2:0.0130265 4:0.174444 5:0.100924 6:0.160319 
1 1:0.0130265 3:0.019611 4:0.141612 5:0.120518 6:0.155099 
1 1:0.019611 4:0.155099 5:0.123701 6:0.150811 
1 3:0.0293692 4:0.163358 5:0.11056 6:0.153836 
1 2:0.0293692 4:0.150811 5:0.113728 6:0.151773 
1 1:0.0293692 3:0.022333 4:0.153836 5:0.111567 6:0.149813 
1 2:0.022333 4:0.151773 5:0.109514 6:0.15595 
1 1:0.022333 3:0.0251602 4:0.149813 5:0.115942 6:0.151237 
1 1:0.0251602 4:0.151237 5:0.123793 6:0.150121 
1 1:0.0289427 4:0.151054 5:0.112759 6:0.15468 
1 2:0.0209137 4:0.153161 5:0.11372 6:0.154658 
1 1:0.0209137 3:0.0164631 4:0.153829 5:0.114589 6:0.143778 
1 2:0.0164631 4:0.154658 5:0.103193 6:0.15722 
1 1:0.0164631 4:0.143778 5:0.117273 6:0.156567 
1 3:0.0109331 4:0.15722 5:0.116588 6:0.144843 
1 2:0.0109331 4:0.156567 5:0.104308 6:0.159761 
1 1:0.0109331 3:0.0106345 4:0.144843 5:0.119933 6:0.155503 
1 1:0.0106345 4:0.155503 5:0.118311 6:0.155767 
1 3:0.00630169 4:0.158212 5:0.11575 6:0.151193 
1 2:0.00630169 4:0.155767 5:0.110959 6:0.162837 
1 1:0.0135036 3:0.0128281 4:0.140548 5:0.1259 6:0.1285 
1 2:0.0128281 4:0.165458 5:0.0871908 6:0.135856 
1 1:0.0128281 4:0.1285 5:0.0948958 6:0.138485 
1 3:0.0192359 4:0.135856 5:0.0976487 6:0.133015 
1 2:0.0192359 4:0.138485 5:0.0919199 6:0.139189 
1 1:0.0192359 3:0.010848 4:0.133015 5:0.0983869 6:0.142332 
1 2:0.010848 4:0.139189 5:0.101678 6:0.139197 
1 1:0.010848 4:0.142332 5:0.0983946 6:0.126709 
1 3:0.0107344 4:0.139197 5:0.0853146 6:0.127362 
1 2:0.0107344 4:0.126709 5:0.0859989 6:0.129976 
1 1:0.0107344 3:0.0168688 4:0.127362 5:0.0887364 6:0.125123 
1 2:0.0168688 4:0.129976 5:0.0836536 6:0.124895 
1 1:0.0168688 3:0.0169695 4:0.125123 5:0.0834152 6:0.135137 
1 2:0.0169695 4:0.124895 5:0.0941422 6:0.123471 
1 1:0.0169695 4:0.135137 5:0.0819234 6:0.123273 
1 3:0.011337 4:0.123471 5:0.0817158 6:0.11972 
1 2:0.011337 4:0.123273 5:0.0779941 6:0.111446 
1 1:0.011337 3:0.0119818 4:0.11972 5:0.0693279 6:0.113068 
1 2:0.0119818 4:0.111446 5:0.0710273 6:0.10674 
1 1:0.0119818 4:0.113068 5:0.0643989 6:0.107885 
1 3:0.0137088 4:0.10674 5:0.0655984 6:0.109595 
1 2:0.0137088 4:0.107885 5:0.0673901 6:0.109008 
1 1:0.0137088 3:0.0120723 4:0.109595 5:0.0667749 6:0.110308 
1 2:0.0120723 4:0.109008 5:0.068136 6:0.120079 
1 1:0.0120723 3:0.00961184 4:0.110308 5:0.0783709 6:0.118927 
1 2:0.00961184 4:0.120079 5:0.0771636 6:0.121915 
1 1:0.00961184 4:0.118927 5:0.0802933 6:0.1182 
1 3:0.0128104 4:0.121915 5:0.0764023 6:0.116952 
1 2:0.0128104 4:0.1182 5:0.0750951 6:0.112121 
1 1:0.0128104 3:0.0188512 4:0.116952 5:0.0700353 6:0.108164 
1 2:0.0188512 4:0.112121 5:0.0658906 6:0.11345 
1 1:0.0188512 4:0.108164 5:0.0714271 6:0.106989 
1 3:0.00992967 4:0.11345 5:0.0646603 6:0.1248 
1 2:0.00992967 4:0.106989 5:0.0833153 6:0.109735 
1 1:0.00992967 3:0.00942432 4:0.1248 5:0.0675362 6:0.115917 
1 2:0.00942432 4:0.109735 5:0.0740108 6:0.114661 
1 1:0.00942432 3:0.0107328 4:0.115917 5:0.0726959 6:0.123515 
1 2:0.0107328 4:0.114661 5:0.0819696 6:0.117693 
1 1:0.0107328 4:0.123515 5:0.0758717 6:0.126892 
1 3:0.0112707 4:0.117693 5:0.0855068 6:0.125013 
1 2:0.0112707 4:0.126892 5:0.0835383 6:0.119257 
1 1:0.0112707 3:0.00887709 4:0.125013 5:0.0775096 6:0.126812 
1 2:0.00887709 3:0.000241131 4:0.119257 5:0.0854222 6:0.124646 
1 1:0.00887709 2:0.000241131 4:0.126812 5:0.0831538 6:0.131055 
1 1:0.000241131 3:0.021856 4:0.124646 5:0.0898668 6:0.131194 
1 2:0.021856 4:0.131055 5:0.0900129 6:0.113677 
1 1:0.021856 3:0.0192448 4:0.131194 5:0.0716655 6:0.10856 
1 2:0.0192448 4:0.113677 5:0.0663059 6:0.111321 
1 1:0.0192448 3:0.0216201 4:0.10856 5:0.0691972 6:0.127414 
1 2:0.0216201 4:0.111321 5:0.0860528 6:0.125321 
1 1:0.0216201 4:0.127414 5:0.0838612 6:0.125277 
1 3:0.0218594 4:0.125321 5:0.0838151 6:0.121445 
1 2:0.0218594 4:0.125277 5:0.0798011 6:0.1277 
1 1:0.0218594 3:0.0249178 4:0.121445 5:0.0863527 6:0.125079 
1 2:0.0249178 4:0.1277 5:0.0836075 6:0.125468 
1 1:0.0249178 4:0.125079 5:0.084015 6:0.126224 
1 3:0.0119664 4:0.125468 5:0.084807 6:0.134895 
1 2:0.0119664 4:0.126224 5:0.0938885 6:0.140217 
1 1:0.0119664 3:0.0122028 4:0.134895 5:0.0994634 6:0.111798 
1 2:0.0122028 4:0.140217 5:0.069697 6:0.10348 
1 1:0.0122028 3:0.00687623 4:0.111798 5:0.0609847 6:0.114353 
1 2:0.00687623 4:0.10348 5:0.072373 6:0.109155 
1 1:0.00687623 4:0.114353 5:0.0669287 6:0.113325 
1 3:0.00648792 4:0.109155 5:0.0712964 6:0.115997 
1 2:0.00648792 4:0.113325 5:0.0740954 6:0.100521 
1 1:0.00648792 3:0.00628479 4:0.115997 5:0.0578858 6:0.114147 
1 2:0.00628479 4:0.100521 5:0.0721577 6:0.125923 
1 1:0.00628479 4:0.114147 5:0.0844918 6:0.119683 
1 3:0.0104896 4:0.125923 5:0.0779556 6:0.103649 
1 2:0.0104896 4:0.119683 5:0.0611615 6:0.0994127 
1 1:0.0104896 3:0.00727 4:0.103649 5:0.0567246 6:0.102371 
1 2:0.00727 4:0.0994127 5:0.0598235 6:0.0982086 
1 1:0.00727 3:0.0124348 4:0.102371 5:0.0554635 6:0.106138 
1 2:0.0124348 4:0.0982086 5:0.0637683 6:0.104721 
1 2:0.0288829 5:0.14567 6:0.183335 
1 1:0.0124348 4:0.106138 5:0.0622842 6:0.10917 
1 3:0.0263054 4:0.104721 5:0.0669441 6:0.111688 
1 2:0.0263054 4:0.10917 5:0.0695816 6:0.107268 
1 1:0.0263054 3:0.0175802 4:0.111688 5:0.0649525 6:0.101813 
1 2:0.0175802 4:0.107268 5:0.0592391 6:0.0937963 
1 1:0.0175802 4:0.101813 5:0.0508421 6:0.101035 
1 3:0.0230787 4:0.0937963 5:0.058424 6:0.105315 
1 2:0.0230787 4:0.101035 5:0.0629071 6:0.102254 
1 2:0.0338402 4:0.286132 5:0.257239 6:0.298583 
1 1:0.0230787 3:0.00806119 4:0.105315 5:0.0597005 6:0.105734 
1 1:0.0338402 3:0.0368338 4:0.290852 5:0.265336 6:0.286748 
1 2:0.00806119 4:0.102254 5:0.0633454 6:0.104603 
1 1:0.00806119 3:0.0193847 4:0.105734 5:0.0621612 6:0.113626 
1 2:0.0193847 4:0.104603 5:0.0716117 6:0.113369 
1 1:0.0193847 4:0.113626 5:0.0713426 6:0.118259 
1 3:0.010054 4:0.113369 5:0.0764638 6:0.11345 
1 2:0.010054 4:0.118259 5:0.0714271 6:0.098796 
1 1:0.010054 3:0.0102722 4:0.11345 5:0.0560787 6:0.105881 
1 2:0.0102722 4:0.098796 5:0.0634992 6:0.114191 
1 1:0.0102722 4:0.105881 5:0.0722038 6:0.102518 
1 3:0.0175992 4:0.114191 5:0.0599773 6:0.102533 
1 2:0.0175992 4:0.102518 5:0.0599927 6:0.0991337 
1 1:0.0175992 3:0.0250962 4:0.102533 5:0.0564324 6:0.0999633 
1 2:0.0250962 4:0.0991337 5:0.0573014 6:0.101718 
1 2:0.0124759 4:0.291315 5:0.245866 6:0.29224 
1 1:0.0250962 3:0.0265525 4:0.0999633 5:0.0591392 6:0.114397 
1 2:0.0265525 4:0.101718 5:0.0724191 6:0.119676 
1 1:0.0265525 4:0.114397 5:0.0779479 6:0.112796 
1 3:0.0341783 4:0.119676 5:0.0707428 6:0.112921 
1 2:0.0341783 4:0.112796 5:0.0708735 6:0.113127 
1 1:0.0341783 3:0.0356946 4:0.112921 5:0.0710888 6:0.105991 
1 2:0.0356946 4:0.113127 5:0.0636145 6:0.111541 
1 1:0.0356946 4:0.105991 5:0.0694278 6:0.0983702 
1 3:0.0391954 4:0.111541 5:0.0556327 6:0.101953 
1 2:0.0391954 4:0.0983702 5:0.0593852 6:0.109206 
1 1:0.0391954 3:0.0306489 4:0.101953 5:0.0669826 6:0.113604 
1 2:0.0306489 4:0.109206 5:0.0715886 6:0.110822 
1 1:0.0306489 3:0.0306385 4:0.113604 5:0.0686743 6:0.116827 
1 2:0.0306385 4:0.110822 5:0.0749644 6:0.118743 
1 1:0.0306385 4:0.116827 5:0.0769713 6:0.114368 
1 3:0.0324877 4:0.118743 5:0.0723883 6:0.087879 
1 2:0.0324877 4:0.114368 5:0.0446443 6:0.102092 
1 1:0.0324877 3:0.0311014 4:0.087879 5:0.0595313 6:0.117524 
1 2:0.0311014 4:0.102092 5:0.0756949 6:0.117517 
1 1:0.0311014 4:0.117524 5:0.0756872 6:0.10809 
1 1:0.0374346 4:0.275912 5:0.252986 6:0.29779 
1 3:0.0320247 4:0.117517 5:0.0658137 6:0.119844 
1 3:0.0400901 4:0.286792 5:0.264505 6:0.280031 
1 2:0.0320247 4:0.10809 5:0.0781248 6:0.108663 
1 2:0.0400901 4:0.29779 5:0.245904 6:0.281484 
1 1:0.0320247 3:0.0308049 4:0.119844 5:0.0664135 6:0.100536 
1 2:0.0308049 4:0.108663 5:0.0579011 6:0.111739 
1 1:0.0308049 3:0.0308908 4:0.100536 5:0.0696355 6:0.11588 
1 2:0.0308908 4:0.111739 5:0.0739724 6:0.108252 
1 1:0.0308908 4:0.11588 5:0.0659829 6:0.105161 
1 3:0.0176658 4:0.108252 5:0.0627456 6:0.107789 
1 2:0.0176658 4:0.105161 5:0.0654985 6:0.108142 
1 1:0.0176658 3:0.0218763 4:0.107789 5:0.0658676 6:0.116783 
1 1:0.0539528 3:0.0521972 4:0.28434 5:0.247727 6:0.289046 
1 2:0.0218763 4:0.108142 5:0.0749182 6:0.11168 
1 1:0.0218763 4:0.116783 5:0.069574 6:0.107349 
1 3:0.0228813 4:0.11168 5:0.0650371 6:0.120402 
1 2:0.0228813 4:0.107349 5:0.0787092 6:0.114272 
1 1:0.0228813 3:0.0256039 4:0.120402 5:0.0722884 6:0.118215 
1 2:0.0256039 4:0.114272 5:0.0764177 6:0.131657 
1 2:0.0505587 4:0.289443 5:0.238007 6:0.305785 
1 1:0.0256039 3:0.0135392 4:0.118215 5:0.0904973 6:0.11817 
1 1:0.0505587 3:0.0561454 4:0.272491 5:0.272879 6:0.294332 
1 2:0.0135392 4:0.131657 5:0.0763716 6:0.122348 
1 2:0.0188471 4:0.281969 5:0.259084 6:0.302452 
1 2:0.0561454 4:0.305785 5:0.260883 6:0.30972 
1 1:0.0135392 4:0.11817 5:0.0807469 6:0.125182 
1 1:0.0188471 4:0.292614 5:0.269388 6:0.31088 
1 1:0.0561454 4:0.294332 5:0.277001 6:0.296593 
1 3:0.0210149 4:0.122348 5:0.0837151 6:0.131708 
1 3:0.0253316 4:0.302452 5:0.278216 6:0.304354 
1 3:0.057503 4:0.30972 5:0.263252 6:0.290023 
1 2:0.0210149 4:0.125182 5:0.0905512 6:0.134337 
1 2:0.0253316 4:0.31088 5:0.27138 6:0.291888 
1 2:0.057503 4:0.296593 5:0.25637 6:0.291968 
1 1:0.0210149 3:0.0130866 4:0.131708 5:0.0933041 6:0.114235 
1 1:0.0253316 3:0.0211447 4:0.304354 5:0.258323 6:0.27926 
1 1:0.057503 3:0.0581975 4:0.290023 5:0.258407 6:0.2731 
1 2:0.0130866 4:0.134337 5:0.0722499 6:0.120336 
1 2:0.0211447 4:0.291888 5:0.245097 6:0.286264 
1 2:0.0581975 4:0.291968 5:0.238645 6:0.288129 
1 1:0.0130866 4:0.114235 5:0.07864 6:0.12317 
1 1:0.0211447 4:0.27926 5:0.252433 6:0.309544 
1 3:0.0164675 4:0.120336 5:0.0816082 6:0.128581 
1 3:0.0245927 4:0.286264 5:0.276816 6:0.303289 
1 2:0.0164675 4:0.12317 5:0.0872754 6:0.109339 
1 2:0.0245927 4:0.309544 5:0.270265 6:0.295881 
1 1:0.0164675 3:0.00607594 4:0.128581 5:0.067121 6:0.10754 
1 1:0.0245927 3:0.0183311 4:0.303289 5:0.262506 6:0.308509 
1 2:0.00607594 4:0.109339 5:0.065237 6:0.111673 
1 2:0.0183311 4:0.295881 5:0.275732 6:0.300551 
1 1:0.00607594 3:0.0121357 4:0.10754 5:0.0695663 6:0.129366 
1 1:0.0183311 3:0.0224228 4:0.308509 5:0.267397 6:0.307143 
1 2:0.0121357 4:0.111673 5:0.0880982 6:0.127443 
1 2:0.0224228 4:0.300551 5:0.274302 6:0.30903 
1 1:0.0121357 4:0.129366 5:0.0860835 6:0.117062 
1 1:0.0224228 4:0.307143 5:0.276278 6:0.306806 
1 3:0.0105658 4:0.127443 5:0.0752104 6:0.118567 
1 3:0.0232891 4:0.30903 5:0.273948 6:0.309919 
1 2:0.0105658 4:0.117062 5:0.0767868 6:0.106299 
1 2:0.0232891 4:0.306806 5:0.277208 6:0.311813 
1 1:0.0105658 3:0.0134661 4:0.118567 5:0.0639375 6:0.106255 
1 1:0.0232891 3:0.0228907 4:0.309919 5:0.279192 6:0.314867 
1 2:0.0134661 4:0.106299 5:0.0638913 6:0.111086 
1 2:0.0228907 4:0.311813 5:0.282391 6:0.324139 
1 1:0.0134661 4:0.106255 5:0.0689511 6:0.11342 
1 1:0.0228907 4:0.314867 5:0.292103 6:0.328096 
1 3:0.00405374 4:0.111086 5:0.0713964 6:0.118538 
1 3:0.0129119 4:0.324139 5:0.296248 6:0.328485 
1 2:0.00405374 4:0.11342 5:0.076756 6:0.106005 
1 2:0.0129119 4:0.328096 5:0.296655 6:0.333669 
1 1:0.00405374 3:0.0084404 4:0.118538 5:0.0636299 6:0.115447 
1 1:0.0129119 3:0.020243 4:0.328485 5:0.302084 6:0.33292 
1 2:0.0084404 4:0.106005 5:0.0735187 6:0.110792 
1 2:0.020243 4:0.333669 5:0.3013 6:0.308876 
1 2:0.0276058 4:0.169664 5:0.0996249 6:0.11701 
1 1:0.0084404 3:0.0106912 4:0.115447 5:0.0686435 6:0.117965 
1 1:0.020243 3:0.0222217 4:0.33292 5:0.276117 6:0.340665 
1 1:0.0276058 3:0.0293952 4:0.140371 5:0.0751566 6:0.180324 
1 2:0.0106912 4:0.110792 5:0.0761562 6:0.119925 
1 2:0.0222217 4:0.308876 5:0.309413 6:0.309133 
1 2:0.0293952 4:0.11701 5:0.141472 6:0.151377 
1 1:0.0106912 4:0.117965 5:0.0782094 6:0.133705 
1 1:0.0222217 4:0.340665 5:0.276386 6:0.334997 
1 1:0.0293952 4:0.180324 5:0.111152 6:0.127795 
1 3:0.0107066 4:0.119925 5:0.0926427 6:0.113597 
1 3:0.0287762 4:0.309133 5:0.303476 6:0.350554 
1 3:0.0312549 4:0.151377 5:0.0864526 6:0.146832 
1 2:0.0107066 4:0.133705 5:0.0715809 6:0.120725 
1 2:0.0287762 4:0.334997 5:0.31977 6:0.34231 
1 2:0.0312549 4:0.127795 5:0.106392 6:0.146832 
1 1:0.0107066 3:0.00347245 4:0.113597 5:0.0790475 6:0.113824 
1 1:0.0287762 3:0.0260765 4:0.350554 5:0.311135 6:0.302606 
1 1:0.0312549 3:0.0286878 4:0.146832 5:0.106392 6:0.142442 
1 2:0.00347245 4:0.120725 5:0.0718193 6:0.115388 
1 2:0.0260765 4:0.34231 5:0.26955 6:0.316673 
1 2:0.0286878 4:0.146832 5:0.101793 6:0.142442 
1 1:0.00347245 4:0.113824 5:0.0734572 6:0.119742 
1 1:0.0260765 4:0.302606 5:0.284283 6:0.33546 
1 1:0.0286878 4:0.142442 5:0.101793 6:0.142442 
1 3:0.00992239 4:0.115388 5:0.0780171 6:0.122722 
1 3:0.0473856 4:0.316673 5:0.303961 6:0.292269 
1 3:0.0309298 4:0.142442 5:0.101793 6:0.148888 
1 2:0.00992239 4:0.119742 5:0.0811391 6:0.126268 
1 2:0.0473856 4:0.33546 5:0.258723 6:0.288672 
1 2:0.0309298 4:0.142442 5:0.108545 6:0.148888 
1 1:0.00992239 3:0.0106597 4:0.122722 5:0.0848532 6:0.12933 
1 1:0.0473856 3:0.0489227 4:0.292269 5:0.254955 6:0.277608 
1 1:0.0309298 3:0.0304486 4:0.148888 5:0.108545 6:0.12781 
1 2:0.0106597 4:0.126268 5:0.0880597 6:0.134337 
1 2:0.0489227 4:0.288672 5:0.243367 6:0.295999 
1 2:0.0304486 4:0.148888 5:0.086468 6:0.12781 
1 1:0.0106597 3:0.00876421 4:0.12933 5:0.0933041 6:0.125116 
1 1:0.0304486 3:0.0266513 4:0.12781 5:0.086468 6:0.131194 
1 2:0.00876421 4:0.134337 5:0.0836459 6:0.114602 
1 2:0.0266513 4:0.12781 5:0.0900129 6:0.131194 
1 1:0.00876421 4:0.125116 5:0.0726344 6:0.126202 
1 1:0.0266513 4:0.131194 5:0.0900129 6:0.165612 
1 3:0.00333694 4:0.114602 5:0.084784 6:0.126099 
1 3:0.027598 4:0.131194 5:0.126062 6:0.170046 
1 2:0.00333694 4:0.126202 5:0.0846763 6:0.123067 
1 1:0.00333694 3:0.00615214 4:0.126099 5:0.0815005 6:0.116717 
1 2:0.00615214 4:0.123067 5:0.074849 6:0.121768 
1 1:0.00615214 4:0.116717 5:0.0801395 6:0.109001 
1 1:0.0286514 4:0.277432 5:0.257046 6:0.29351 
1 3:0.00696284 4:0.121768 5:0.0667672 6:0.11135 
1 3:0.0201694 4:0.290669 5:0.260022 6:0.309948 
1 2:0.00696284 4:0.109001 5:0.0692279 6:0.105991 
1 2:0.0201694 4:0.29351 5:0.277239 6:0.306563 
1 1:0.00696284 3:0.00966724 4:0.11135 5:0.0636145 6:0.110124 
1 1:0.0201694 3:0.0196552 4:0.309948 5:0.273694 6:0.290478 
1 2:0.00966724 4:0.105991 5:0.0679438 6:0.102819 
1 2:0.0196552 4:0.306563 5:0.256846 6:0.303091 
1 1:0.00966724 3:0.00882273 4:0.110124 5:0.0602926 6:0.131899 
1 1:0.0196552 3:0.0133189 4:0.290478 5:0.270057 6:0.317847 
1 2:0.00882273 4:0.102819 5:0.0907511 6:0.116085 
1 2:0.0133189 4:0.303091 5:0.285513 6:0.33927 
1 1:0.00882273 4:0.131899 5:0.0741877 6:0.113303 
1 1:0.0133189 4:0.317847 5:0.307952 6:0.329858 
1 3:0.00928751 4:0.116085 5:0.0712734 6:0.117143 
1 3:0.0164017 4:0.33927 5:0.298093 6:0.335944 
1 2:0.00928751 4:0.113303 5:0.075295 6:0.111225 
1 2:0.0164017 4:0.329858 5:0.304468 6:0.335878 
1 1:0.00928751 3:0.0154412 4:0.117143 5:0.0690972 6:0.114199 
1 1:0.0164017 3:0.0125912 4:0.335944 5:0.304399 6:0.310873 
1 2:0.0154412 4:0.111225 5:0.0722115 6:0.124249 
1 2:0.0125912 4:0.335878 5:0.278208 6:0.316122 
1 1:0.0154412 4:0.114199 5:0.0827385 6:0.120556 
1 1:0.0125912 4:0.310873 5:0.283706 6:0.315806 
1 3:0.0156883 4:0.124249 5:0.0788707 6:0.124675 
1 3:0.0167926 4:0.316122 5:0.283376 6:0.305469 
1 2:0.0156883 4:0.120556 5:0.0831845 6:0.122128 
1 2:0.0167926 4:0.315806 5:0.272549 6:0.312774 
1 1:0.0156883 3:0.0127311 4:0.124675 5:0.0805162 6:0.116511 
1 1:0.0167926 3:0.0125342 4:0.305469 5:0.2802 6:0.319874 
1 2:0.0127311 4:0.122128 5:0.0746337 6:0.118471 
1 2:0.0125342 4:0.312774 5:0.287636 6:0.315014 
1 1:0.0127311 3:0.00741721 4:0.116511 5:0.0766868 6:0.117201 
1 1:0.0125342 3:0.0218269 4:0.319874 5:0.282545 6:0.3108 
1 2:0.00741721 4:0.118471 5:0.0753565 6:0.114859 
1 2:0.0218269 4:0.315014 5:0.278131 6:0.317517 
1 1:0.00741721 4:0.117201 5:0.0729035 6:0.105323 
1 1:0.0218269 4:0.3108 5:0.285167 6:0.306233 
1 3:0.00928361 4:0.114859 5:0.0629148 6:0.11331 
1 3:0.0186892 4:0.317517 5:0.273348 6:0.310704 
1 2:0.00928361 4:0.105323 5:0.071281 6:0.117561 
1 2:0.0186892 4:0.306233 5:0.278031 6:0.299919 
1 1:0.00928361 3:0.00629805 4:0.11331 5:0.0757333 6:0.129601 
1 1:0.0186892 3:0.0223715 4:0.310704 5:0.266735 6:0.30566 
1 2:0.00629805 4:0.117561 5:0.0883443 6:0.122487 
1 2:0.0223715 4:0.299919 5:0.272749 6:0.313597 
1 1:0.00629805 4:0.129601 5:0.080893 6:0.119991 
1 1:0.0223715 4:0.30566 5:0.281061 6:0.314764 
1 3:0.0209338 4:0.122487 5:0.0782786 6:0.12331 
1 3:0.0164178 4:0.313597 5:0.282284 6:0.304721 
1 2:0.0209338 4:0.119991 5:0.0817543 6:0.126657 
1 2:0.0164178 4:0.314764 5:0.271764 6:0.304684 
1 1:0.0209338 3:0.0120515 4:0.12331 5:0.0852607 6:0.116078 
1 1:0.0164178 3:0.0205592 4:0.304721 5:0.271726 6:0.3037 
1 2:0.0120515 4:0.126657 5:0.07418 6:0.121687 
1 2:0.0205592 4:0.304684 5:0.270695 6:0.28111 
1 1:0.0120515 3:0.020992 4:0.116078 5:0.0800549 6:0.1108 
1 1:0.0205592 3:0.0192317 4:0.3037 5:0.247035 6:0.291528 
1 2:0.020992 4:0.121687 5:0.0686512 6:0.128074 
1 2:0.0192317 4:0.28111 5:0.257946 6:0.291528 
1 1:0.020992 4:0.1108 5:0.0867448 6:0.109684 
1 1:0.0192317 4:0.291528 5:0.257946 6:0.290441 
1 3:0.0138529 4:0.128074 5:0.0674824 6:0.114206 
1 2:0.0138529 4:0.109684 5:0.0722192 6:0.120534 
1 1:0.0138529 3:0.0297672 4:0.114206 5:0.0788476 6:0.124249 
1 2:0.0297672 4:0.120534 5:0.0827385 6:0.127641 
1 1:0.0297672 4:0.124249 5:0.0862911 6:0.119228 
1 3:0.0175204 4:0.127641 5:0.0774789 6:0.108678 
1 2:0.0175204 4:0.119228 5:0.0664289 6:0.128441 
1 1:0.0175204 3:0.026477 4:0.108678 5:0.0871293 6:0.123361 
1 2:0.026477 4:0.128441 5:0.0818081 6:0.124367 
1 1:0.026477 3:0.0217135 4:0.123361 5:0.0828616 6:0.122252 
1 2:0.0217135 4:0.124367 5:0.080647 6:0.122561 
1 1:0.0217135 4:0.122252 5:0.0809699 6:0.128067 
1 3:0.0328622 4:0.122561 5:0.0867371 6:0.127759 
1 2:0.0328622 4:0.128067 5:0.0864142 6:0.115403 
1 1:0.0328622 3:0.0253748 4:0.127759 5:0.0734726 6:0.106094 
1 2:0.0253748 4:0.115403 5:0.0637222 6:0.112327 
1 2:0.0198648 4:0.16429 5:0.105992 6:0.150312 
1 1:0.0253748 4:0.106094 5:0.0702506 6:0.103201 
1 1:0.0198648 4:0.14645 5:0.110037 6:0.149585 
1 3:0.0358923 4:0.112327 5:0.0606925 6:0.118266 
1 3:0.0134736 4:0.150312 5:0.109275 6:0.163696 
1 2:0.0358923 4:0.103201 5:0.0764715 6:0.130372 
1 2:0.0134736 4:0.149585 5:0.124055 6:0.142354 
1 1:0.0358923 3:0.0239687 4:0.118266 5:0.0891517 6:0.124492 
1 1:0.0134736 3:0.0199413 4:0.163696 5:0.101701 6:0.131415 
1 2:0.0239687 4:0.130372 5:0.0829923 6:0.121951 
1 2:0.0199413 4:0.142354 5:0.0902436 6:0.13474 
1 1:0.0239687 3:0.0347817 4:0.124492 5:0.0803317 6:0.135842 
1 1:0.0199413 3:0.0101164 4:0.131415 5:0.093727 6:0.152456 
1 2:0.0347817 4:0.121951 5:0.0948804 6:0.131378 
1 2:0.0101164 4:0.13474 5:0.112282 6:0.148506 
1 1:0.0347817 4:0.135842 5:0.0902051 6:0.12223 
1 1:0.0101164 4:0.152456 5:0.108145 6:0.136679 
1 3:0.0328674 4:0.131378 5:0.0806239 6:0.14231 
1 3:0.0144518 4:0.148506 5:0.095757 6:0.144123 
1 2:0.0328674 4:0.12223 5:0.101655 6:0.127289 
1 2:0.0144518 4:0.136679 5:0.103554 6:0.132303 
1 1:0.0328674 3:0.0336451 4:0.14231 5:0.085922 6:0.117869 
1 1:0.0144518 3:0.00828097 4:0.144123 5:0.091174 6:0.134138 
1 2:0.0336451 4:0.127289 5:0.0760563 6:0.108193 
1 2:0.00828097 4:0.132303 5:0.0930964 6:0.142141 
1 2:0.00979755 4:0.165803 5:0.102409 6:0.143029 
1 1:0.0336451 4:0.117869 5:0.0659214 6:0.114771 
1 1:0.00828097 4:0.134138 5:0.101478 6:0.139909 
1 1:0.00979755 4:0.143029 5:0.102409 6:0.143029 
1 3:0.0207717 4:0.108193 5:0.0728113 6:0.118237 
1 3:0.00661224 4:0.142141 5:0.0991405 6:0.150143 
1 3:0.00839671 4:0.143029 5:0.102409 6:0.152691 
1 2:0.0207717 4:0.114771 5:0.0764408 6:0.121327 
1 2:0.00661224 4:0.139909 5:0.10986 6:0.142846 
1 2:0.00839671 4:0.143029 5:0.112528 6:0.152691 
1 1:0.0207717 3:0.0250445 4:0.118237 5:0.0796781 6:0.116203 
1 1:0.00661224 3:0.00892859 4:0.150143 5:0.102216 6:0.132406 
1 1:0.00839671 3:0.0089442 4:0.152691 5:0.112528 6:0.159401 
1 2:0.0250445 4:0.121327 5:0.0743107 6:0.118618 
1 2:0.00892859 4:0.142846 5:0.0912817 6:0.142963 
1 2:0.0089442 4:0.152691 5:0.119556 6:0.159401 
1 1:0.0250445 3:0.0195126 4:0.116203 5:0.0768406 6:0.118413 
1 1:0.00892859 3:0.00757977 4:0.132406 5:0.102339 6:0.133404 
1 2:0.0195126 4:0.118618 5:0.0766253 6:0.122084 
1 2:0.00757977 4:0.142963 5:0.0923275 6:0.14046 
1 1:0.0195126 4:0.118413 5:0.0804701 6:0.116599 
1 1:0.00757977 4:0.133404 5:0.0997172 6:0.145467 
1 3:0.0162483 4:0.122084 5:0.074726 6:0.133191 
1 3:0.00942718 4:0.14046 5:0.104961 6:0.160069 
1 2:0.0162483 4:0.116599 5:0.0921045 6:0.125637 
1 2:0.00942718 4:0.145467 5:0.120256 6:0.130218 
1 1:0.0162483 3:0.0190198 4:0.133191 5:0.0841919 6:0.116144 
1 1:0.00942718 3:0.00849918 4:0.160069 5:0.0889902 6:0.150173 
1 2:0.0190198 4:0.125637 5:0.0742492 6:0.117495 
1 2:0.00849918 4:0.130218 5:0.109891 6:0.142486 
1 1:0.0190198 4:0.116144 5:0.0756641 6:0.107966 
1 1:0.00849918 4:0.150173 5:0.10184 6:0.154196 
1 1:0.00904017 4:0.15421 5:0.11412 6:0.15421 
1 3:0.0145541 4:0.117495 5:0.065683 6:0.121973 
1 3:0.015525 4:0.142486 5:0.114104 6:0.152015 
1 2:0.0145541 4:0.107966 5:0.0803548 6:0.111137 
1 2:0.015525 4:0.154196 5:0.111821 6:0.15562 
1 1:0.0145541 3:0.0151476 4:0.121973 5:0.0690049 6:0.105499 
1 1:0.015525 3:0.0125758 4:0.152015 5:0.115596 6:0.156574 
1 2:0.0151476 4:0.111137 5:0.0630993 6:0.118009 
1 2:0.0125758 4:0.15562 5:0.116596 6:0.143286 
1 1:0.0151476 3:0.0177524 4:0.105499 5:0.0762024 6:0.125593 
1 1:0.0125758 3:0.0155632 4:0.156574 5:0.102678 6:0.147742 
1 2:0.0177524 4:0.118009 5:0.0841457 6:0.126444 
1 2:0.0155632 4:0.143286 5:0.107345 6:0.146259 
1 2:0.00788199 4:0.174356 5:0.108868 6:0.149196 
1 1:0.0177524 4:0.125593 5:0.0850377 6:0.108949 
1 1:0.0155632 4:0.147742 5:0.105792 6:0.146839 
1 1:0.00788199 4:0.149196 5:0.108868 6:0.149196 
1 3:0.0274134 4:0.126444 5:0.0667134 6:0.107804 
1 3:0.0137127 4:0.146259 5:0.106399 6:0.149989 
1 3:0.0139291 4:0.149196 5:0.108868 6:0.165304 
1 2:0.0274134 4:0.108949 5:0.0655138 6:0.107687 
1 2:0.0137127 4:0.146839 5:0.109698 6:0.150363 
1 1:0.0274134 3:0.024742 4:0.107804 5:0.0653908 6:0.127215 
1 1:0.0137127 3:0.0219861 4:0.149989 5:0.11009 6:0.152749 
1 2:0.024742 4:0.107687 5:0.0858451 6:0.123163 
1 2:0.0219861 4:0.150363 5:0.11259 6:0.156978 
1 1:0.024742 4:0.127215 5:0.0816005 6:0.124147 
1 1:0.0219861 4:0.152749 5:0.117019 6:0.158718 
1 1:0.0127509 4:0.154078 5:0.113981 6:0.148822 
1 1:0.0623511 2:0.0497498 3:0.0444596 5:0.167686 6:0.170178 
1 1:0.0604681 2:0.0716181 3:0.0303342 4:0.168864 5:0.118503 6:0.146392 
1 1:0.0716181 2:0.0303342 3:0.0510606 4:0.158395 5:0.10593 6:0.140335 
1 1:0.0303342 2:0.0510606 3:0.0351198 4:0.146392 5:0.0995865 6:0.141297 
1 1:0.0510606 2:0.0351198 3:0.018562 4:0.140335 5:0.100594 6:0.128985 
1 1:0.0351198 2:0.018562 3:0.016292 4:0.141297 5:0.0876983 6:0.133735 
1 1:0.018562 2:0.016292 3:0.0174208 4:0.128985 5:0.0926735 6:0.133514 
1 1:0.016292 2:0.0174208 3:0.0234527 4:0.133735 5:0.0924428 6:0.135577 
1 1:0.0174208 2:0.0234527 3:0.012742 4:0.133514 5:0.0946036 6:0.124771 
1 1:0.0234527 2:0.012742 3:0.0129626 4:0.135577 5:0.0832845 6:0.121386 
1 1:0.012742 2:0.0129626 3:0.00590558 4:0.124771 5:0.0797396 6:0.140606 
1 1:0.0129626 2:0.00590558 3:0.00710771 4:0.121386 5:0.099871 6:0.123258 
1 1:0.00590558 2:0.00710771 3:0.0690562 4:0.140606 5:0.0817004 6:0.169664 
1 1:0.00710771 2:0.0690562 3:0.134263 4:0.123258 5:0.130306 6:0.139336 
1 1:0.0690562 2:0.134263 3:0.0467172 4:0.169664 5:0.0985407 6:0.148594 
1 1:0.134263 2:0.0467172 3:0.0511153 4:0.139336 5:0.108237 6:0.137442 
1 1:0.0467172 2:0.0511153 3:0.0449616 4:0.148594 5:0.0965568 6:0.144879 
1 1:0.0511153 2:0.0449616 3:0.0464389 4:0.137442 5:0.104346 6:0.141495 
1 1:0.0449616 2:0.0464389 3:0.0555394 4:0.144879 5:0.100801 6:0.144204 
1 1:0.0464389 2:0.0555394 3:0.0437313 4:0.141495 5:0.103639 6:0.140937 
1 1:0.0555394 2:0.0437313 3:0.0582183 4:0.144204 5:0.100217 6:0.131371 
1 1:0.0437313 2:0.0582183 3:0.0759277 4:0.140937 5:0.0901975 6:0.133771 
1 1:0.0582183 2:0.0759277 3:0.101775 4:0.131371 5:0.092712 6:0.141987 
1 1:0.0759277 2:0.101775 3:0.0954162 4:0.133771 5:0.101317 6:0.142324 
1 1:0.101775 2:0.0954162 3:0.06922 4:0.141987 5:0.10167 6:0.137706 
1 1:0.0954162 2:0.06922 3:0.0748406 4:0.142324 5:0.0968336 6:0.143367 
1 1:0.06922 2:0.0748406 3:0.0657739 4:0.137706 5:0.102762 6:0.150268 
1 1:0.0748406 2:0.0657739 3:0.0638024 4:0.143367 5:0.10999 6:0.150092 
1 1:0.0657739 2:0.0638024 3:0.0624291 4:0.150268 5:0.109806 6:0.170237 
1 1:0.016945 2:0.0238015 3:0.0255782 5:0.12314 6:0.160656 
1 1:0.0206768 2:0.0122054 3:0.00924148 4:0.157382 5:0.109475 6:0.151927 
1 1:0.0122054 2:0.00924148 3:0.0082625 4:0.149776 5:0.111728 6:0.147214 
1 1:0.00924148 2:0.0082625 3:0.00266175 4:0.151927 5:0.106792 6:0.162 
1 1:0.0082625 2:0.00266175 3:0.0071873 4:0.147214 5:0.122278 6:0.145261 
1 1:0.00266175 2:0.0071873 3:0.007025 4:0.162 5:0.104746 6:0.145533 
1 1:0.0071873 2:0.007025 3:0.00965268 4:0.145261 5:0.105031 6:0.152764 
1 1:0.007025 2:0.00965268 3:0.00632224 4:0.145533 5:0.112605 6:0.141135 
1 1:0.00965268 2:0.00632224 3:0.0029931 4:0.152764 5:0.100425 6:0.152368 
1 1:0.00632224 2:0.0029931 3:0.00899751 4:0.141135 5:0.11219 6:0.135974 
1 1:0.0029931 2:0.00899751 3:0.0138555 4:0.152368 5:0.0950188 6:0.152647 
1 1:0.00899751 2:0.0138555 3:0.00940663 4:0.135974 5:0.112482 6:0.146208 
1 1:0.0138555 2:0.00940663 3:0.00348987 4:0.152647 5:0.105738 6:0.155554 
1 1:0.031476 2:0.0387012 3:0.0294811 4:0.179392 5:0.165002 
1 1:0.00940663 2:0.00348987 3:0.00718625 4:0.146208 5:0.115527 6:0.161097 
1 1:0.00348987 2:0.00718625 3:0.0029351 4:0.155554 5:0.121333 6:0.15029 
1 1:0.00718625 2:0.0029351 3:0.00276266 4:0.161097 5:0.110014 6:0.158696 
1 1:0.0029351 2:0.00276266 3:0.00107331 4:0.15029 5:0.118818 6:0.150723 
1 1:0.00276266 2:0.00107331 3:0.00644838 4:0.158696 5:0.110467 6:0.151465 
1 1:0.00107331 2:0.00644838 3:0.00734543 4:0.150723 5:0.111244 6:0.162969 
1 1:0.00644838 2:0.00734543 3:0.00269998 4:0.151465 5:0.123293 6:0.148132 
1 1:0.00734543 2:0.00269998 3:0.00248289 4:0.162969 5:0.107753 6:0.148675 
1 1:0.00269998 2:0.00248289 3:0.00195376 4:0.148132 5:0.108322 6:0.164217 
1 1:0.017678 2:0.0139288 3:0.135636 4:0.148954 5:0.119318 6:0.147486 
1 1:0.0139288 2:0.135636 3:0.118577 4:0.159173 5:0.107076 6:0.173181 
1 1:0.135636 2:0.118577 3:0.0238738 4:0.147486 5:0.13399 6:0.176397 
1 1:0.0238738 2:0.0293952 3:0.0355359 4:0.176397 5:0.156928 
1 1:0.043206 2:0.0392214 3:0.042072 5:0.153837 6:0.152852 
1 1:0.0358897 2:0.0367297 3:0.0365217 4:0.166603 5:0.098879 6:0.14275 
1 1:0.0367297 2:0.0365217 3:0.0354683 4:0.139659 5:0.102116 6:0.144967 
1 1:0.0365217 2:0.0354683 3:0.0307321 4:0.14275 5:0.104439 6:0.142324 
1 1:0.0354683 2:0.0307321 3:0.0340378 4:0.144967 5:0.10167 6:0.127707 
1 1:0.0307321 2:0.0340378 3:0.0272625 4:0.142324 5:0.0863603 6:0.128897 
1 1:0.0340378 2:0.0272625 3:0.025444 4:0.127707 5:0.0876061 6:0.133859 
1 1:0.0272625 2:0.025444 3:0.0279596 4:0.128897 5:0.0928042 6:0.118237 
1 1:0.025444 2:0.0279596 3:0.0315176 4:0.133859 5:0.0764408 6:0.116107 
1 1:0.0279596 2:0.0315176 3:0.0234301 4:0.118237 5:0.0742108 6:0.120094 
1 1:0.0315176 2:0.0234301 3:0.0272235 4:0.116107 5:0.0783862 6:0.115498 
1 1:0.0234301 2:0.0272235 3:0.0289739 4:0.120094 5:0.0735725 6:0.113721 
1 1:0.0272235 2:0.0289739 3:0.0295461 4:0.115498 5:0.0717117 6:0.114052 
1 1:0.0289739 2:0.0295461 3:0.0215595 4:0.113721 5:0.0720577 6:0.121349 
1 1:0.0295461 2:0.0215595 3:0.153302 4:0.114052 5:0.0797012 6:0.120542 
1 1:0.0215595 2:0.153302 3:0.132151 4:0.121349 5:0.0788553 6:0.119022 
1 1:0.153302 2:0.132151 3:0.0235282 4:0.120542 5:0.0772635 6:0.12088 
1 1:0.132151 2:0.0235282 3:0.0266383 4:0.119022 5:0.079209 6:0.130754 
1 1:0.0235282 2:0.0266383 3:0.0254128 4:0.12088 5:0.0895515 6:0.127024 
1 1:0.0266383 2:0.0254128 3:0.026243 4:0.130754 5:0.0856452 6:0.117921 
1 1:0.0254128 2:0.026243 3:0.0231003 4:0.127024 5:0.0761101 6:0.114896 
1 1:0.026243 2:0.0231003 3:0.0280402 4:0.117921 5:0.072942 6:0.11472 
1 1:0.0231003 2:0.0280402 3:0.0226145 4:0.114896 5:0.0727574 6:0.114632 
1 1:0.0280402 2:0.0226145 3:0.0213119 4:0.11472 5:0.0726652 6:0.117488 
1 1:0.0226145 2:0.0213119 3:0.0167882 4:0.114632 5:0.0756564 6:0.123662 
1 1:0.0213119 2:0.0167882 3:0.0236657 4:0.117488 5:0.0821234 6:0.121621 
1 1:0.0167882 2:0.0236657 3:0.0303264 4:0.123662 5:0.0799857 6:0.114074 
1 1:0.0236657 2:0.0303264 3:0.0231791 4:0.121621 5:0.0720808 6:0.125798 
1 1:0.0303264 2:0.0231791 3:0.0293172 4:0.114074 5:0.084361 6:0.122333 
1 1:0.0231791 2:0.0293172 3:0.0291716 4:0.125798 5:0.0807316 6:0.126665 
1 1:0.0293172 2:0.0291716 3:0.0353721 4:0.122333 5:0.0852684 6:0.133206 
1 1:0.0291716 2:0.0353721 3:0.0376869 4:0.126665 5:0.0921199 6:0.129623 
1 1:0.0353721 2:0.0376869 3:0.0371303 4:0.133206 5:0.0883673 6:0.13709 
1 1:0.0376869 2:0.0371303 3:0.032134 4:0.129623 5:0.0961877 6:0.151259 
1 1:0.0371303 2:0.032134 3:0.0363578 4:0.13709 5:0.111029 6:0.133507 
1 1:0.032134 2:0.0363578 3:0.0411721 4:0.151259 5:0.0924351 6:0.138176 
1 1:0.0363578 2:0.0411721 3:0.0377025 4:0.133507 5:0.0973257 
1 1:0.0377025 2:0.0311222 3:0.0370497 5:0.09162 6:0.152757 
1 1:0.0311222 2:0.0370497 3:0.0290649 4:0.132729 5:0.112597 6:0.141084 
1 1:0.0370497 2:0.0290649 3:0.0315046 4:0.152757 5:0.100371 
1 1:0.0344722 2:0.0586786 3:0.066744 5:0.043114 6:0.179399 
1 1:0.0586786 2:0.066744 3:0.0507147 4:0.086418 5:0.140503 6:0.177344 
1 1:0.0538436 2:0.0423763 3:0.0446911 4:0.289942 5:0.252263 6:0.300066 
1 1:0.0423763 2:0.0446911 3:0.0439628 4:0.286102 5:0.266889 6:0.318024 
1 1:0.0446911 2:0.0439628 3:0.0393592 4:0.300066 5:0.285698 6:0.310359 
1 1:0.0439628 2:0.0393592 3:0.0410758 4:0.318024 5:0.27767 6:0.287747 
1 1:0.0393592 2:0.0410758 3:0.0449382 4:0.310359 5:0.253986 6:0.263799 
1 1:0.0162293 2:0.0295357 3:0.0226751 5:0.117403 6:0.168681 
1 1:0.0487745 2:0.0535887 3:0.609739 4:0.28202 5:0.24535 6:0.291902 
1 1:0.0250926 2:0.031723 3:0.976928 4:0.177094 5:0.149377 6:0.0912708 
1 1:0.0535887 2:0.609739 3:0.262073 4:0.279502 5:0.258338 6:0.274106 
1 1:0.031723 2:0.976928 3:0.287788 4:0.187872 5:0.0481969 6:0.164892 
1 1:0.609739 2:0.262073 3:0.0457288 4:0.291902 5:0.239699 6:0.283995 
1 1:0.976928 2:0.287788 3:0.038514 4:0.0912708 5:0.125308 6:0.154974 
1 1:0.262073 2:0.0457288 3:0.0527356 4:0.274106 5:0.250057 6:0.290698 
1 1:0.287788 2:0.038514 3:0.0433568 4:0.164892 5:0.11492 6:0.168211 
1 1:0.0457288 2:0.0527356 3:0.0482361 4:0.283995 5:0.257077 6:0.291895 
1 1:0.038514 2:0.0433568 3:0.0540309 4:0.154974 5:0.128784 
1 1:0.0231367 2:0.0245342 3:0.0283627 4:0.28702 5:0.265313 6:0.312253 
1 1:0.0245342 2:0.0283627 3:0.0222204 4:0.298561 5:0.279654 6:0.34123 
1 1:0.0283627 2:0.0222204 3:0.0226168 4:0.312253 5:0.310005 6:0.345746 
1 1:0.0222204 2:0.0226168 3:0.0252083 4:0.34123 5:0.314734 6:0.358212 
1 1:0.0226168 2:0.0252083 3:0.0253488 4:0.345746 5:0.327791 6:0.321511 
1 1:0.0252083 2:0.0253488 3:0.0290571 4:0.358212 5:0.28935 6:0.297284 
1 1:0.0253488 2:0.0290571 3:0.0335671 4:0.321511 5:0.263975 6:0.335548 
1 1:0.0290571 2:0.0335671 3:0.0622913 4:0.297284 5:0.304053 6:0.238132 
1 1:0.0335671 2:0.0622913 3:0.0684996 4:0.335548 5:0.20202 6:0.187204 
1 1:0.0192775 2:0.0203205 3:0.014733 5:0.119979 6:0.165105 
1 1:0.0237505 2:0.0355671 3:0.0207881 4:0.191271 5:0.261153 6:0.320608 
1 1:0.0355671 2:0.0207881 3:0.0209364 4:0.294589 5:0.288405 6:0.29503 
1 1:0.0207881 2:0.0209364 3:0.0203813 4:0.320608 5:0.261614 6:0.30801 
1 1:0.0209364 2:0.0203813 3:0.017427 4:0.29503 5:0.275209 6:0.309618 
1 1:0.0203813 2:0.017427 3:0.0282482 4:0.30801 5:0.276893 6:0.296476 
1 1:0.017427 2:0.0282482 3:0.0363994 4:0.309618 5:0.263129 6:0.309559 
1 1:0.0282482 2:0.0363994 3:0.0353903 4:0.296476 5:0.276832 6:0.320072 
1 1:0.0480644 2:0.0411617 3:0.0352967 4:0.165502 5:0.105669 6:0.143712 
1 1:0.0363994 2:0.0353903 3:0.0432658 4:0.309559 5:0.287843 6:0.248983 
1 1:0.0411617 2:0.0352967 3:0.027416 4:0.146142 5:0.103124 6:0.151252 
1 1:0.0353903 2:0.0432658 3:0.0359417 4:0.320072 5:0.213385 6:0.308289 
1 1:0.0352967 2:0.027416 3:0.0251342 4:0.143712 5:0.111021 6:0.152999 
1 1:0.0432658 2:0.0359417 3:0.0352134 4:0.248983 5:0.275501 6:0.309588 
1 1:0.0359417 2:0.0352134 3:0.0423008 4:0.308289 5:0.276862 6:0.292614 
1 1:0.0352134 2:0.0423008 3:0.0428965 4:0.309588 5:0.259084 6:0.278841 
1 1:0.023697 2:0.0209991 3:0.0295513 4:0.157118 5:0.110083 6:0.144549 
1 1:0.0209991 2:0.0295513 3:0.0157325 4:0.150356 5:0.104 6:0.160135 
1 1:0.0221731 2:0.0191293 3:0.156415 4:0.157 5:0.142756 6:0.145511 
1 1:0.0191293 2:0.156415 3:0.149504 4:0.181551 5:0.105008 6:0.152514 
1 1:0.156415 2:0.149504 3:0.0284849 4:0.145511 5:0.112343 6:0.14137 
1 1:0.149504 2:0.0284849 3:0.0324747 4:0.152514 5:0.100671 6:0.154056 
1 1:0.0284849 2:0.0324747 3:0.0313927 4:0.14137 5:0.113958 6:0.149189 
1 1:0.0324747 2:0.0313927 3:0.0338636 4:0.154056 5:0.10886 6:0.146458 
1 1:0.0313927 2:0.0338636 3:0.0335671 4:0.149189 5:0.106 6:0.159922 
1 1:0.0338636 2:0.0335671 3:0.0357128 4:0.146458 5:0.120102 6:0.143587 
1 1:0.0335671 2:0.0357128 3:0.0285421 4:0.159922 5:0.102993 6:0.14656 
1 1:0.0357128 2:0.0285421 3:0.0272053 4:0.143587 5:0.106107 6:0.139189 
1 1:0.0285421 2:0.0272053 3:0.0238925 4:0.14656 5:0.0983869 6:0.131341 
1 1:0.012142 2:0.0083205 3:0.301706 4:0.262477 5:0.210478 6:0.289267 
1 1:0.0272053 2:0.0238925 3:0.416067 4:0.139189 5:0.0901667 6:0.137097 
1 1:0.0083205 2:0.301706 3:0.165094 4:0.246208 5:0.255578 6:0.263931 
1 1:0.0238925 2:0.416067 3:0.288576 4:0.131341 5:0.0961953 6:0.139241 
1 1:0.301706 2:0.165094 3:0.00297776 4:0.289267 5:0.229041 6:0.272586 
1 1:0.416067 2:0.288576 3:0.0362096 4:0.137097 5:0.0984407 6:0.138573 
1 1:0.165094 2:0.00297776 3:0.00647777 4:0.263931 5:0.238107 6:0.237604 
1 1:0.288576 2:0.0362096 3:0.0319467 4:0.139241 5:0.0977409 6:0.129601 
1 1:0.0362096 2:0.0319467 3:0.0476405 4:0.138573 5:0.0883443 6:0.126723 
1 1:0.00647777 2:0.0063342 3:0.00714776 4:0.237604 5:0.269088 6:0.294553 
1 1:0.0319467 2:0.0476405 3:0.035705 4:0.129601 5:0.0853299 6:0.126826 
1 1:0.0063342 2:0.00714776 3:0.00326333 4:0.302166 5:0.261114 6:0.275039 
1 1:0.0476405 2:0.035705 3:0.0295825 4:0.126723 5:0.0854376 6:0.118405 
1 1:0.035705 2:0.0295825 3:0.031528 4:0.126826 5:0.0766176 6:0.127135 
1 1:0.0295825 2:0.031528 3:0.140045 4:0.118405 5:0.0857606 6:0.117312 
1 1:0.031528 2:0.140045 3:0.141142 4:0.127135 5:0.0754719 6:0.126378 
1 1:0.140045 2:0.141142 3:0.0440695 4:0.117312 5:0.0849685 6:0.119727 
1 1:0.141142 2:0.0440695 3:0.0467926 4:0.126378 5:0.0780018 6:0.117348 
1 1:0.0440695 2:0.0467926 3:0.03519 4:0.119727 5:0.0755103 6:0.113031 
1 1:0.0467926 2:0.03519 3:0.0281962 4:0.117348 5:0.0709888 6:0.11748 
1 1:0.03519 2:0.0281962 3:0.0169557 4:0.113031 5:0.0756487 6:0.115696 
1 1:0.0281962 2:0.0169557 3:0.0107185 4:0.11748 5:0.0737802 6:0.113956 
1 1:0.0169557 2:0.0107185 3:0.00752411 4:0.115696 5:0.0719577 6:0.129609 
1 1:0.0107185 2:0.00752411 3:0.0125087 4:0.113956 5:0.0883519 6:0.113083 
1 1:0.00752411 2:0.0125087 3:0.009603 4:0.129609 5:0.0710427 6:0.11425 
1 1:0.0125087 2:0.009603 3:0.0111253 4:0.113083 5:0.0722653 6:0.12096 
1 1:0.009603 2:0.0111253 3:0.0170366 4:0.11425 5:0.0792936 6:0.127186 
1 1:0.0111253 2:0.0170366 3:0.0144984 4:0.12096 5:0.0858144 6:0.118383 
1 1:0.0170366 2:0.0144984 3:0.0135865 4:0.127186 5:0.0765946 6:0.110183 
1 1:0.0144984 2:0.0135865 3:0.0130455 4:0.118383 5:0.0680053 6:0.125872 
1 1:0.0135865 2:0.0130455 3:0.0137774 4:0.110183 5:0.0844379 6:0.114235 
1 1:0.0130455 2:0.0137774 3:0.0141223 4:0.125872 5:0.0722499 6:0.124007 
1 1:0.0146076 2:0.0196203 3:0.0246928 4:0.275765 5:0.243459 6:0.32041 
1 1:0.0137774 2:0.0141223 3:0.0163117 4:0.114235 5:0.0824848 6:0.124961 
1 1:0.0196203 2:0.0246928 3:0.0233422 4:0.277696 5:0.288197 6:0.291638 
1 1:0.0141223 2:0.0163117 3:0.015888 4:0.124007 5:0.0834844 6:0.130167 
1 1:0.0246928 2:0.0233422 3:0.0208258 4:0.32041 5:0.258061 6:0.273328 
1 1:0.0163117 2:0.015888 3:0.0208417 4:0.124961 5:0.0889364 6:0.124506 
1 1:0.0233422 2:0.0208258 3:0.282594 4:0.291638 5:0.238884 6:0.295617 
1 1:0.015888 2:0.0208417 3:0.352454 4:0.130167 5:0.0830077 6:0.127619 
1 1:0.0208258 2:0.282594 3:0.198182 4:0.273328 5:0.262229 6:0.296931 
1 1:0.0208417 2:0.352454 3:0.224371 4:0.124506 5:0.0862681 6:0.12408 
1 1:0.282594 2:0.198182 3:0.0563066 4:0.295617 5:0.263606 6:0.333324 
1 1:0.352454 2:0.224371 3:0.125805 4:0.127619 5:0.0825617 6:0.119213 
1 1:0.198182 2:0.0563066 3:0.0808746 4:0.296931 5:0.301723 6:0.331319 
1 1:0.224371 2:0.125805 3:0.149736 4:0.12408 5:0.0774635 6:0.12886 
1 1:0.0563066 2:0.0808746 3:0.0670561 4:0.333324 5:0.299624 6:0.275273 
1 1:0.125805 2:0.149736 3:0.0540907 4:0.119213 5:0.0875676 6:0.129726 
1 1:0.0808746 2:0.0670561 3:0.0740005 4:0.331319 5:0.240921 6:0.340137 
1 1:0.149736 2:0.0540907 3:0.0412475 4:0.12886 5:0.088475 6:0.130438 
1 1:0.0670561 2:0.0740005 3:0.076076 4:0.275273 5:0.308859 6:0.374994 
1 1:0.0540907 2:0.0412475 3:0.0384984 4:0.129726 5:0.0892209 6:0.133309 
1 1:0.0740005 2:0.076076 3:0.0848904 4:0.340137 5:0.345369 
1 1:0.0412475 2:0.0384984 3:0.0135579 4:0.130438 5:0.0922275 6:0.131473 
1 1:0.0384984 2:0.0135579 3:0.0133545 4:0.133309 5:0.0903051 6:0.131701 
1 1:0.0135579 2:0.0133545 3:0.00455468 4:0.131473 5:0.0905435 6:0.131011 
1 1:0.0133545 2:0.00455468 3:0.0113724 4:0.131701 5:0.0898207 6:0.122157 
1 1:0.00455468 2:0.0113724 3:0.00813948 4:0.131011 5:0.080547 6:0.124293 
1 1:0.0113724 2:0.00813948 3:0.0122205 4:0.122157 5:0.0827847 6:0.123346 
1 1:0.00813948 2:0.0122205 3:0.00945527 4:0.124293 5:0.0817927 6:0.116034 
1 1:0.0122205 2:0.00945527 3:0.00978038 4:0.123346 5:0.0741339 6:0.125174 
1 1:0.00945527 2:0.00978038 3:0.0145632 4:0.116034 5:0.0837074 6:0.13115 
1 1:0.00978038 2:0.0145632 3:0.00988442 4:0.125174 5:0.0899668 6:0.132002 
1 1:0.0145632 2:0.00988442 3:0.0101908 4:0.13115 5:0.0908588 6:0.130468 
1 1:0.00988442 2:0.0101908 3:0.00966126 4:0.132002 5:0.0892516 6:0.136524 
1 1:0.0101908 2:0.00966126 3:0.00831608 4:0.130468 5:0.0955956 6:0.123552 
1 1:0.00966126 2:0.00831608 3:0.0049768 4:0.136524 5:0.082008 6:0.125835 
1 1:0.00831608 2:0.0049768 3:0.00628557 4:0.123552 5:0.0843995 6:0.126856 
1 1:0.0049768 2:0.00628557 3:0.0097913 4:0.125835 5:0.0854684 6:0.126334 
1 1:0.00628557 2:0.0097913 3:0.0127776 4:0.126856 5:0.0849224 6:0.133566 
1 1:0.0097913 2:0.0127776 3:0.00898659 4:0.126334 5:0.0924966 6:0.141671 
1 1:0.0127776 2:0.00898659 3:0.0111287 4:0.133566 5:0.100986 6:0.12676 
1 1:0.00898659 2:0.0111287 3:0.0170369 4:0.141671 5:0.0853684 6:0.116871 
1 1:0.0111287 2:0.0170369 3:0.0197249 4:0.12676 5:0.0750105 6:0.124528 
1 1:0.0170369 2:0.0197249 3:0.0158022 4:0.116871 5:0.0830307 6:0.140004 
